~o
<STREAMINFO> 1 39
<VECSIZE> 39<NULLD><MFCC_E_D_A_Z>
~v "varFloor1"
<VARIANCE> 39
 7.863250e-01 4.703713e-01 6.289747e-01 6.059018e-01 6.012956e-01 5.621349e-01 5.466796e-01 4.706112e-01 4.741533e-01 3.792425e-01 3.516833e-01 2.817960e-01 7.526553e-04 4.094679e-02 3.005209e-02 3.118869e-02 3.783449e-02 3.778835e-02 3.591334e-02 3.722882e-02 3.588931e-02 3.430975e-02 2.863990e-02 2.652600e-02 2.145229e-02 3.560277e-05 5.774550e-03 4.975510e-03 4.874378e-03 6.251019e-03 6.329431e-03 6.136401e-03 6.410786e-03 6.458353e-03 6.073844e-03 5.222828e-03 4.809971e-03 3.937648e-03 5.557711e-06
~s "silst"
<MEAN> 39
 -4.917584e+00 -1.182941e+00 -1.207457e+00 2.722868e+00 3.093012e+00 1.983290e+00 3.386256e+00 2.254394e+00 3.219189e+00 1.492723e+00 2.445346e+00 2.666988e+00 1.103541e-01 -1.649367e-02 -3.519901e-02 -1.906215e-02 -2.846403e-02 -2.170191e-02 5.311332e-02 4.884278e-02 -6.766107e-02 -6.746411e-02 1.793484e-02 3.525496e-02 -2.082205e-02 -3.000298e-03 1.158411e-01 5.889972e-02 7.743543e-02 -3.919557e-02 -3.949562e-02 -5.020347e-02 -6.932085e-02 -6.758475e-02 -1.037813e-01 -1.017392e-01 -1.160286e-01 -7.250288e-02 1.164368e-02
<VARIANCE> 39
 1.256318e+01 2.216193e+01 2.023744e+01 1.928955e+01 2.379327e+01 2.524318e+01 2.345949e+01 2.441852e+01 2.562448e+01 2.951419e+01 2.606045e+01 1.666283e+01 2.708073e-02 1.159490e+00 1.434826e+00 1.439172e+00 1.498884e+00 1.731476e+00 1.818840e+00 1.888960e+00 1.977207e+00 2.128253e+00 2.359102e+00 2.025031e+00 1.506621e+00 2.249124e-03 2.410585e-01 2.528569e-01 2.799095e-01 3.072502e-01 3.451644e-01 3.519811e-01 3.795576e-01 3.924506e-01 4.298525e-01 4.598424e-01 3.950249e-01 2.988883e-01 4.315076e-04
<GCONST> 8.472070e+01
~h "zh"
<BEGINHMM>
<NUMSTATES> 5
<STATE> 2
<MEAN> 39
 -5.525424e+00 5.075575e+00 1.288251e+01 2.148692e+00 -5.783884e+00 -2.266947e+00 -2.150447e+00 -3.897891e+00 -2.467662e+00 -4.598894e+00 -4.581356e-01 7.551160e-01 6.691754e-01 -4.372059e+00 1.400056e+00 9.713815e-01 9.103228e-01 1.807266e+00 2.505210e+00 1.713748e+00 9.830462e-02 1.026900e+00 3.592409e-01 2.633133e-01 -1.588057e-01 -1.985776e-02 6.347091e-02 -8.032236e-01 -3.575894e-01 -2.331619e-01 9.634271e-02 2.143612e-01 5.926286e-02 5.083731e-01 1.851042e-01 3.203333e-01 4.774170e-02 -3.738695e-02 1.131807e-02
<VARIANCE> 39
 3.723749e+01 1.879866e+01 1.901007e+01 4.187968e+01 2.993255e+01 3.134275e+01 3.078301e+01 1.931261e+01 2.411569e+01 1.936963e+01 1.759488e+01 1.844287e+01 1.032937e-02 2.263071e+00 3.173369e+00 2.559157e+00 1.932193e+00 2.731883e+00 3.127232e+00 3.006836e+00 3.161094e+00 2.936980e+00 3.000678e+00 2.214857e+00 1.773943e+00 9.350539e-04 7.396221e-01 3.121998e-01 3.406685e-01 3.090994e-01 5.148813e-01 5.922000e-01 4.881425e-01 4.416828e-01 4.320441e-01 4.670607e-01 3.507755e-01 3.635516e-01 8.259526e-05
<GCONST> 9.053209e+01
<STATE> 3
<MEAN> 39
 -1.716819e+01 2.598923e+00 1.169845e+01 2.562036e+00 -4.944525e-01 5.841847e+00 3.757510e+00 3.203444e-01 2.496843e+00 -1.147021e+00 1.341230e+00 1.099524e+00 6.980258e-01 1.204273e-01 -5.060186e-01 -5.713653e-01 -9.133692e-02 -1.159467e-01 -1.386702e-02 3.209135e-01 3.087074e-01 3.945719e-01 2.708859e-01 -3.383663e-02 -2.551684e-03 -3.402585e-03 1.561752e+00 -1.363167e-02 -2.266281e-01 -1.311121e-01 -5.291039e-01 -9.127995e-01 -6.759251e-01 -2.360777e-01 -3.652274e-01 -2.786752e-01 -2.228636e-01 -4.988284e-02 -2.770905e-03
<VARIANCE> 39
 2.018910e+01 2.903500e+01 2.177052e+01 3.565326e+01 2.642380e+01 3.557475e+01 3.189913e+01 2.589610e+01 2.548341e+01 1.967591e+01 2.366126e+01 1.717310e+01 1.440829e-02 6.873232e+00 1.433150e+00 1.299288e+00 1.796811e+00 2.329284e+00 3.958680e+00 2.811121e+00 2.188109e+00 2.128052e+00 1.830753e+00 1.743026e+00 1.484110e+00 8.308744e-04 3.803241e-01 3.748667e-01 3.695911e-01 3.415361e-01 4.429021e-01 5.232028e-01 4.935100e-01 4.542754e-01 4.124839e-01 3.925683e-01 4.022132e-01 3.545947e-01 1.788089e-04
<GCONST> 8.927087e+01
<STATE> 4
<MEAN> 39
 -5.460881e+00 3.130558e+00 9.932645e+00 2.637168e+00 -5.103432e+00 -1.543243e+00 -8.767756e-02 -2.058974e+00 2.451023e-01 -3.326977e+00 -1.319411e+00 1.515483e-02 6.325700e-01 5.103903e+00 -9.922249e-01 -1.500538e+00 -7.517547e-01 -1.208505e+00 -2.353414e+00 -2.057068e+00 -7.922234e-02 -5.839220e-01 -7.232378e-01 -7.700305e-01 -1.175119e-01 4.984492e-03 1.239761e-01 -4.189095e-01 -2.704719e-01 -1.844441e-01 2.277510e-01 2.597815e-01 -8.218121e-02 2.283218e-01 3.333979e-02 5.522636e-02 4.852165e-02 3.995051e-02 8.560474e-03
<VARIANCE> 39
 4.045173e+01 2.476058e+01 2.123925e+01 4.185922e+01 2.973731e+01 3.707276e+01 3.238225e+01 2.459620e+01 3.001058e+01 2.070704e+01 1.763867e+01 1.690707e+01 1.020447e-02 2.825805e+00 3.129987e+00 2.682448e+00 2.385837e+00 3.102535e+00 4.339762e+00 3.450393e+00 3.587828e+00 3.182937e+00 2.658653e+00 2.712706e+00 2.258905e+00 9.397515e-04 8.604594e-01 3.034296e-01 3.432252e-01 4.235511e-01 4.617484e-01 6.011044e-01 6.136469e-01 5.105139e-01 4.588634e-01 4.079777e-01 3.899049e-01 3.502199e-01 1.112341e-04
<GCONST> 9.425367e+01
<TRANSP> 5
 0.000000e+00 1.000000e+00 0.000000e+00 0.000000e+00 0.000000e+00
 0.000000e+00 6.775837e-01 3.224163e-01 0.000000e+00 0.000000e+00
 0.000000e+00 0.000000e+00 7.769881e-01 2.230119e-01 0.000000e+00
 0.000000e+00 0.000000e+00 0.000000e+00 5.823280e-01 4.176720e-01
 0.000000e+00 0.000000e+00 0.000000e+00 0.000000e+00 0.000000e+00
<ENDHMM>
~h "b"
<BEGINHMM>
<NUMSTATES> 5
<STATE> 2
<MEAN> 39
 3.331954e+00 8.026686e+00 4.643691e+00 6.733168e+00 5.264562e+00 2.111651e+00 -7.020892e-01 -4.953617e+00 -3.446316e+00 -2.664677e+00 -2.032519e+00 -3.284507e+00 3.895065e-01 -9.777470e-01 4.798099e-02 2.616484e-01 6.170088e-01 4.307595e-01 3.504108e-01 9.298151e-01 6.261035e-01 3.552644e-01 -2.474237e-02 -3.898244e-02 2.428949e-01 -2.558811e-02 2.250502e-01 -8.248476e-01 -4.870769e-01 -9.361729e-01 -6.711271e-01 -2.117151e-01 -1.824691e-01 3.562871e-01 3.883415e-01 3.961838e-01 2.362343e-01 2.900278e-01 2.786344e-02
<VARIANCE> 39
 1.835232e+01 1.535712e+01 1.794510e+01 2.318955e+01 1.845127e+01 2.072108e+01 2.426426e+01 2.419953e+01 2.391117e+01 2.326229e+01 2.244165e+01 2.334095e+01 2.527865e-02 2.203165e+00 3.308205e+00 2.606333e+00 3.807663e+00 2.623310e+00 2.510045e+00 2.438641e+00 2.813920e+00 3.072919e+00 2.906660e+00 2.556739e+00 2.223536e+00 5.047022e-03 4.053703e-01 3.994074e-01 5.427264e-01 7.227906e-01 5.603434e-01 5.362364e-01 5.485588e-01 5.589283e-01 5.879102e-01 5.399765e-01 5.037655e-01 4.781886e-01 5.701255e-04
<GCONST> 9.612466e+01
<STATE> 3
<MEAN> 39
 -1.828006e+00 2.325656e+00 1.204237e+00 4.426449e+00 4.148286e+00 2.702910e+00 2.955165e+00 5.117980e-01 2.039108e+00 1.512705e+00 1.249557e+00 7.768883e-01 3.231375e-01 1.134454e+00 -1.161633e+00 -4.994927e-01 -1.487801e+00 -1.298350e+00 -4.187767e-01 -3.570331e-01 5.617189e-01 5.797372e-01 5.877395e-01 3.269012e-01 5.655300e-01 9.259751e-02 8.772910e-01 -5.398825e-02 1.207801e-02 -7.278668e-01 -5.410858e-01 -2.220434e-01 -6.477666e-01 -3.524575e-01 -4.085603e-01 -1.910938e-01 -2.108367e-01 -2.964092e-01 3.567931e-02
<VARIANCE> 39
 2.204150e+01 1.928008e+01 1.962387e+01 2.374104e+01 1.823592e+01 2.154371e+01 2.259518e+01 2.731886e+01 2.948185e+01 2.648758e+01 2.351816e+01 1.825025e+01 5.093361e-02 4.448630e+00 2.983532e+00 4.815749e+00 4.748409e+00 3.609424e+00 3.615577e+00 3.731668e+00 3.704321e+00 4.047005e+00 3.775779e+00 3.377081e+00 2.991188e+00 7.801469e-03 4.350613e-01 6.084411e-01 8.120341e-01 9.463692e-01 6.606817e-01 7.837998e-01 6.850508e-01 7.153348e-01 8.081998e-01 6.640610e-01 7.233175e-01 4.801914e-01 8.508997e-04
<GCONST> 1.054007e+02
<STATE> 4
<MEAN> 39
 5.940551e+00 2.194362e+00 8.400159e-01 -4.267045e-01 -2.145431e-01 9.348241e-01 -2.215806e-01 -1.127679e+00 7.448304e-01 1.156624e+00 5.923638e-01 3.319583e-01 6.888753e-01 2.516150e+00 -1.565493e+00 -7.108880e-01 -3.539883e+00 -2.495654e+00 -5.715213e-01 -1.600500e+00 -1.286750e-01 -3.178306e-01 1.146618e-01 -1.154227e-01 -3.684591e-01 1.256113e-01 -2.562388e-01 -6.224328e-02 -4.066946e-02 -2.038845e-01 2.985290e-02 8.396501e-02 -1.812147e-01 -1.757843e-01 -2.834004e-01 -2.400606e-01 -1.904320e-01 -3.096405e-01 -1.917609e-02
<VARIANCE> 39
 2.344938e+01 1.946948e+01 4.157060e+01 5.791261e+01 2.882030e+01 4.470747e+01 3.104220e+01 3.109122e+01 2.975004e+01 2.774663e+01 2.166991e+01 1.870183e+01 1.556061e-02 3.354657e+00 4.942770e+00 8.412260e+00 7.020130e+00 5.647376e+00 7.288105e+00 5.781019e+00 6.050073e+00 6.699614e+00 5.085161e+00 5.506253e+00 4.133667e+00 3.183629e-03 4.755653e-01 4.621110e-01 4.509906e-01 7.584234e-01 5.359756e-01 6.840553e-01 6.132285e-01 6.836549e-01 6.564056e-01 6.025781e-01 5.662692e-01 4.367048e-01 5.974117e-04
<GCONST> 1.090324e+02
<TRANSP> 5
 0.000000e+00 1.000000e+00 0.000000e+00 0.000000e+00 0.000000e+00
 0.000000e+00 6.322345e-01 3.677655e-01 0.000000e+00 0.000000e+00
 0.000000e+00 0.000000e+00 4.889424e-01 5.110576e-01 0.000000e+00
 0.000000e+00 0.000000e+00 0.000000e+00 1.987848e-01 8.012152e-01
 0.000000e+00 0.000000e+00 0.000000e+00 0.000000e+00 0.000000e+00
<ENDHMM>
~h "d"
<BEGINHMM>
<NUMSTATES> 5
<STATE> 2
<MEAN> 39
 3.377524e+00 6.393299e+00 6.425875e+00 6.408593e+00 2.428612e-01 -2.232640e+00 -2.029497e+00 -3.541843e+00 -2.439935e+00 -2.944924e+00 -2.990845e+00 -2.091345e+00 4.584315e-01 -1.094082e+00 8.647850e-01 -1.151881e-01 1.051885e+00 1.948923e+00 1.205930e+00 8.293083e-01 -2.351808e-01 4.392955e-02 -1.283569e-01 -7.537249e-02 -3.947014e-01 -5.376286e-02 -1.989459e-01 -7.812309e-01 -3.364056e-01 -7.857051e-01 -3.368349e-01 2.199888e-02 9.858136e-02 4.715469e-01 2.230828e-01 3.242477e-01 3.337205e-01 2.649472e-01 1.382857e-02
<VARIANCE> 39
 1.834586e+01 2.600352e+01 2.391937e+01 2.793501e+01 3.138803e+01 2.574709e+01 2.592367e+01 2.892244e+01 3.048209e+01 2.698095e+01 2.327562e+01 2.348112e+01 2.790058e-02 2.125896e+00 4.512869e+00 3.029887e+00 4.460639e+00 4.168036e+00 3.545425e+00 3.575517e+00 4.062934e+00 3.729492e+00 2.966019e+00 2.714205e+00 2.816393e+00 3.514839e-03 2.946892e-01 4.903054e-01 3.930889e-01 5.636771e-01 5.854772e-01 5.129322e-01 6.116928e-01 6.045228e-01 5.774643e-01 5.432864e-01 4.718063e-01 4.446918e-01 4.167140e-04
<GCONST> 9.997822e+01
<STATE> 3
<MEAN> 39
 4.660221e-01 5.361059e+00 5.217192e+00 6.432715e+00 3.473825e+00 8.541756e-01 5.324576e-02 -2.785511e+00 -2.053795e+00 -2.263884e+00 -2.046487e+00 -2.114923e+00 3.559292e-01 -1.426018e+00 -1.276685e+00 -8.187802e-01 -1.078406e+00 4.640626e-01 7.552456e-01 8.071381e-01 8.956645e-01 7.899283e-01 7.907609e-01 8.726642e-01 7.009581e-01 -9.337645e-03 1.793640e-01 -5.207173e-01 -1.412753e-01 -7.272236e-01 -8.248647e-01 -4.660738e-01 -2.080489e-01 3.247538e-01 1.844832e-01 2.402622e-01 1.981227e-01 3.333367e-01 2.866423e-02
<VARIANCE> 39
 1.903655e+01 2.690411e+01 2.257394e+01 2.602574e+01 2.848567e+01 2.423700e+01 2.539181e+01 2.446461e+01 2.472036e+01 2.213894e+01 1.983914e+01 1.874081e+01 3.580298e-02 2.689805e+00 3.430605e+00 3.040585e+00 3.732242e+00 3.395238e+00 3.415666e+00 3.402773e+00 3.502181e+00 3.545591e+00 3.059529e+00 2.611649e+00 2.424536e+00 4.318662e-03 4.390183e-01 6.262898e-01 5.590742e-01 6.635858e-01 7.288952e-01 6.148870e-01 6.811227e-01 6.674156e-01 6.281137e-01 5.424690e-01 5.276588e-01 5.118199e-01 5.886968e-04
<GCONST> 1.008221e+02
<STATE> 4
<MEAN> 39
 -3.133090e+00 7.718165e-01 2.969557e+00 1.131272e+00 1.490371e+00 4.461223e-01 2.020219e+00 8.646814e-01 1.195893e+00 8.680907e-01 1.052170e+00 1.605972e+00 4.629165e-01 1.324040e-01 -6.640676e-01 -2.239590e-01 -9.120449e-01 -8.954006e-01 -6.208908e-01 -1.022279e-01 6.131810e-01 3.954349e-01 2.796843e-01 1.322279e-01 4.866624e-01 4.071538e-02 6.009566e-01 1.192616e-01 4.642150e-02 1.209010e-01 -3.322629e-01 -2.443767e-01 -3.413178e-01 -1.727146e-01 -2.081241e-01 -2.186396e-01 -2.800861e-01 -2.445795e-01 4.661923e-03
<VARIANCE> 39
 3.685949e+01 3.544119e+01 3.517973e+01 3.941453e+01 4.339737e+01 4.077922e+01 3.777174e+01 3.487723e+01 3.358469e+01 2.966757e+01 2.820742e+01 2.115262e+01 5.261014e-02 5.180903e+00 3.636113e+00 3.895921e+00 4.608787e+00 4.924417e+00 4.663248e+00 4.838210e+00 4.172467e+00 4.243502e+00 3.704788e+00 3.605134e+00 2.813414e+00 6.300593e-03 7.260964e-01 7.850093e-01 7.460462e-01 8.921034e-01 9.563892e-01 9.239728e-01 8.602151e-01 7.752645e-01 7.430335e-01 6.905232e-01 6.712685e-01 5.321573e-01 9.746546e-04
<GCONST> 1.129386e+02
<TRANSP> 5
 0.000000e+00 1.000000e+00 0.000000e+00 0.000000e+00 0.000000e+00
 0.000000e+00 3.813812e-01 6.186188e-01 0.000000e+00 0.000000e+00
 0.000000e+00 0.000000e+00 3.293347e-01 6.706653e-01 0.000000e+00
 0.000000e+00 0.000000e+00 0.000000e+00 5.608402e-01 4.391598e-01
 0.000000e+00 0.000000e+00 0.000000e+00 0.000000e+00 0.000000e+00
<ENDHMM>
~h "f"
<BEGINHMM>
<NUMSTATES> 5
<STATE> 2
<MEAN> 39
 -1.006333e+01 -2.111586e-01 -1.311550e+00 4.963657e+00 2.545189e+00 3.210988e+00 3.013337e+00 1.610687e+00 2.341927e+00 1.978264e+00 9.234136e-01 2.047741e+00 3.580350e-01 -1.040098e+00 -4.044707e-01 -4.243253e-01 -7.619059e-03 -4.702172e-02 1.468223e-01 1.259169e-01 2.019995e-01 2.879377e-01 3.399026e-01 3.239039e-01 2.872753e-01 -1.711309e-02 6.539518e-01 5.833545e-03 5.473705e-02 -2.036220e-01 -9.736230e-02 -1.561607e-01 -1.423876e-01 -1.334294e-01 -1.301721e-01 -1.001977e-01 -1.104566e-01 -1.365418e-01 1.288740e-02
<VARIANCE> 39
 1.996112e+01 1.481245e+01 1.865220e+01 1.624139e+01 1.729620e+01 1.820179e+01 1.876776e+01 1.765063e+01 2.135837e+01 1.753255e+01 1.895935e+01 1.412371e+01 1.888830e-02 3.903047e+00 1.185088e+00 1.711533e+00 1.689800e+00 1.721891e+00 1.890090e+00 1.953263e+00 2.059362e+00 2.112354e+00 1.916784e+00 1.836342e+00 1.572011e+00 2.161512e-03 3.775257e-01 3.128732e-01 3.562589e-01 4.179660e-01 4.357219e-01 3.912404e-01 4.262486e-01 4.185838e-01 4.191820e-01 3.701843e-01 3.510893e-01 2.991292e-01 2.690764e-04
<GCONST> 8.379787e+01
<STATE> 3
<MEAN> 39
 -9.660945e+00 -1.825928e+00 -1.925342e+00 4.485734e+00 3.010750e+00 3.519815e+00 3.843115e+00 2.265018e+00 3.512697e+00 3.127776e+00 1.845636e+00 2.585284e+00 3.675160e-01 2.789834e+00 3.631089e-01 1.602746e-01 -5.731875e-01 -1.204637e-01 -4.693457e-01 -3.874444e-01 -4.504804e-01 -4.889852e-01 -5.805926e-01 -6.053677e-01 -6.447302e-01 4.791263e-02 1.324250e+00 1.309245e-01 -1.363746e-01 -6.379002e-01 -4.442951e-01 -3.633472e-01 -5.658996e-01 -2.988215e-01 -4.188031e-01 -3.656268e-01 -2.824652e-01 -3.378384e-01 2.623324e-02
<VARIANCE> 39
 1.607706e+01 1.515969e+01 2.094867e+01 1.753019e+01 1.851696e+01 1.841535e+01 2.009704e+01 1.922659e+01 2.181237e+01 1.800562e+01 2.021414e+01 1.456883e+01 1.380106e-02 4.456234e+00 1.627596e+00 2.253991e+00 2.265894e+00 2.126954e+00 2.450086e+00 2.315734e+00 2.074049e+00 2.208469e+00 1.954429e+00 1.899262e+00 1.543752e+00 2.669518e-03 3.104822e-01 4.474958e-01 5.340451e-01 5.682790e-01 5.553051e-01 6.266370e-01 5.621151e-01 5.302202e-01 5.736784e-01 4.861019e-01 5.253344e-01 3.996121e-01 2.898274e-04
<GCONST> 8.927124e+01
<STATE> 4
<MEAN> 39
 -9.038154e-01 1.286791e+00 -1.062497e+00 2.822128e+00 2.425736e+00 2.322521e+00 2.414482e+00 -6.319857e-02 1.046806e+00 6.226907e-01 -7.131433e-01 5.259935e-02 5.137490e-01 5.004538e+00 -4.048387e-02 -6.831055e-01 -2.522801e+00 -1.475136e+00 -1.007256e+00 -1.717733e+00 -8.906311e-01 -1.122626e+00 -9.800608e-01 -7.162973e-01 -1.096988e+00 1.018657e-01 -9.954650e-02 -4.753182e-01 -2.766514e-01 -4.388332e-01 -3.307517e-01 -7.312258e-02 -3.341735e-01 9.792551e-02 -2.278555e-02 1.185106e-02 1.124897e-01 1.386645e-02 7.455999e-03
<VARIANCE> 39
 4.073884e+01 1.787475e+01 2.893492e+01 3.039972e+01 2.386168e+01 2.610877e+01 2.549074e+01 2.272240e+01 2.215031e+01 1.883206e+01 1.809265e+01 1.607843e+01 2.834322e-02 3.859587e+00 4.114404e+00 5.444174e+00 5.906044e+00 4.987812e+00 6.456225e+00 5.032392e+00 4.472121e+00 5.022833e+00 3.703814e+00 4.432932e+00 3.097488e+00 3.243793e-03 6.013227e-01 3.964643e-01 3.803836e-01 5.322960e-01 5.245306e-01 5.235915e-01 5.456146e-01 5.261922e-01 5.260293e-01 4.513375e-01 4.233898e-01 3.538613e-01 3.839793e-04
<GCONST> 1.018476e+02
<TRANSP> 5
 0.000000e+00 1.000000e+00 0.000000e+00 0.000000e+00 0.000000e+00
 0.000000e+00 8.357269e-01 1.642731e-01 0.000000e+00 0.000000e+00
 0.000000e+00 0.000000e+00 4.872885e-01 5.127115e-01 0.000000e+00
 0.000000e+00 0.000000e+00 0.000000e+00 2.971644e-01 7.028356e-01
 0.000000e+00 0.000000e+00 0.000000e+00 0.000000e+00 0.000000e+00
<ENDHMM>
~h "g"
<BEGINHMM>
<NUMSTATES> 5
<STATE> 2
<MEAN> 39
 2.111003e+00 6.874304e+00 6.467793e+00 7.230608e+00 1.435521e+00 -2.078578e+00 -8.452373e-01 -4.125247e+00 -4.874197e+00 -1.972846e+00 -1.474965e+00 -2.934012e+00 3.884201e-01 -1.109707e+00 -3.821170e-01 -1.217281e+00 2.263587e-01 1.703207e+00 1.131121e+00 6.284074e-01 2.458263e-01 1.181536e+00 2.488901e-01 4.564197e-02 4.680539e-01 -4.951955e-02 -3.848750e-02 -9.620619e-01 -4.361551e-01 -7.737952e-01 -4.462091e-01 -1.675229e-01 -9.014864e-02 3.728519e-01 1.791835e-01 4.176267e-01 1.214524e-01 2.989580e-01 2.681463e-02
<VARIANCE> 39
 1.407837e+01 1.695669e+01 2.955922e+01 2.003826e+01 3.422378e+01 2.984581e+01 3.013992e+01 3.343217e+01 3.533350e+01 2.696480e+01 2.655452e+01 2.195276e+01 2.367800e-02 1.763975e+00 6.080297e+00 4.681312e+00 4.208523e+00 4.770646e+00 3.920766e+00 3.757588e+00 5.014284e+00 4.110430e+00 4.394635e+00 3.570101e+00 2.711340e+00 3.541620e-03 3.655994e-01 5.738788e-01 6.551521e-01 5.128651e-01 8.128551e-01 7.104545e-01 7.048551e-01 7.205686e-01 7.391496e-01 6.580658e-01 5.439344e-01 4.750842e-01 5.038103e-04
<GCONST> 1.040581e+02
<STATE> 3
<MEAN> 39
 -2.746517e+00 -2.607717e+00 -2.080940e+00 2.849351e+00 4.994470e+00 8.717019e-01 1.397132e+00 -3.933661e-01 8.899360e-01 3.184528e+00 3.620085e-01 1.360187e+00 3.734310e-01 1.250815e-01 -1.085327e+00 -6.804206e-01 -1.136631e+00 -4.570112e-01 -4.767111e-01 -4.239051e-01 4.848759e-02 1.782925e-01 7.687418e-01 -8.154803e-02 4.694660e-01 6.582010e-02 7.525942e-01 6.880103e-01 7.420598e-01 -4.629485e-02 -8.421054e-01 -5.553505e-01 -5.022563e-01 -2.801610e-01 -5.564585e-01 -3.688582e-01 -1.051413e-01 -3.564062e-01 2.568623e-02
<VARIANCE> 39
 2.649810e+01 3.784009e+01 6.178857e+01 3.620453e+01 4.513292e+01 4.092855e+01 4.058527e+01 3.944913e+01 4.604403e+01 3.206841e+01 2.810022e+01 2.183269e+01 3.820883e-02 3.720699e+00 5.421729e+00 6.302959e+00 4.286044e+00 5.370677e+00 4.362796e+00 4.233428e+00 4.508067e+00 4.442625e+00 3.749755e+00 3.324743e+00 2.773787e+00 3.855326e-03 5.407504e-01 9.554244e-01 8.910831e-01 9.161844e-01 1.020164e+00 8.772851e-01 8.611127e-01 9.444138e-01 9.277987e-01 8.091139e-01 8.727330e-01 5.901135e-01 7.642705e-04
<GCONST> 1.142244e+02
<STATE> 4
<MEAN> 39
 1.303263e+00 1.880629e+00 3.459527e+00 1.056066e+00 -1.090388e+00 -3.089450e+00 -2.063497e+00 -3.421598e+00 -3.265613e+00 1.887771e+00 -9.366796e-01 -1.399012e-01 6.241556e-01 2.025373e+00 4.395028e-01 9.581043e-01 -1.154662e+00 -2.676335e+00 -1.338565e+00 -1.293863e+00 -8.584427e-02 -8.085823e-01 -4.592986e-01 2.111216e-01 -5.360519e-01 8.091891e-02 1.738612e-01 -2.613156e-01 -2.277445e-01 -1.950140e-03 -7.110294e-02 1.318452e-01 8.550287e-02 3.764235e-01 1.538736e-01 -2.320942e-01 1.255896e-01 -1.504944e-01 -7.625101e-03
<VARIANCE> 39
 3.571120e+01 2.830637e+01 7.231535e+01 4.531347e+01 7.467719e+01 4.784109e+01 4.189990e+01 4.752055e+01 4.404208e+01 3.544597e+01 3.123617e+01 2.155642e+01 1.906776e-02 3.922667e+00 4.063085e+00 4.037745e+00 4.892610e+00 5.305828e+00 4.781003e+00 5.197854e+00 5.336118e+00 5.894007e+00 4.750963e+00 5.195733e+00 3.272563e+00 1.948192e-03 4.346524e-01 7.041746e-01 7.814732e-01 6.026541e-01 1.015772e+00 8.083323e-01 7.637044e-01 8.339717e-01 8.204579e-01 7.510937e-01 6.310810e-01 4.873603e-01 3.215359e-04
<GCONST> 1.123159e+02
<TRANSP> 5
 0.000000e+00 1.000000e+00 0.000000e+00 0.000000e+00 0.000000e+00
 0.000000e+00 6.388927e-01 3.611074e-01 0.000000e+00 0.000000e+00
 0.000000e+00 0.000000e+00 5.948544e-01 4.051456e-01 0.000000e+00
 0.000000e+00 0.000000e+00 0.000000e+00 4.054196e-01 5.945805e-01
 0.000000e+00 0.000000e+00 0.000000e+00 0.000000e+00 0.000000e+00
<ENDHMM>
~h "k"
<BEGINHMM>
<NUMSTATES> 5
<STATE> 2
<MEAN> 39
 -3.362182e-01 2.842978e+00 2.586090e+00 5.245246e+00 2.383948e+00 -1.076028e+00 1.835032e+00 4.525680e-01 -1.684102e+00 6.893751e-01 -1.688098e-01 -1.847850e-01 3.658566e-01 -2.003914e+00 -1.940157e-01 -1.166199e+00 5.861504e-01 1.381745e+00 1.384131e+00 9.352353e-01 7.878643e-01 1.997274e+00 1.054338e+00 1.153618e+00 8.942436e-01 -1.162685e-01 -1.520048e-02 -7.502738e-01 -5.255423e-01 -7.464364e-01 -3.579043e-01 1.918117e-03 -1.009870e-01 1.658332e-01 2.380704e-01 1.360549e-01 8.424761e-02 9.946299e-02 1.715921e-02
<VARIANCE> 39
 2.226324e+01 2.216256e+01 3.948698e+01 2.803724e+01 4.529041e+01 4.518532e+01 3.971360e+01 5.413111e+01 4.793628e+01 3.220707e+01 2.874191e+01 2.228979e+01 3.586743e-02 3.078544e+00 3.758413e+00 4.685393e+00 4.617287e+00 5.379635e+00 4.965520e+00 4.244090e+00 5.690743e+00 5.370288e+00 3.909421e+00 4.207864e+00 2.559036e+00 4.252975e-03 3.480935e-01 5.302481e-01 5.564435e-01 5.556209e-01 7.401205e-01 7.738104e-01 6.828870e-01 8.908553e-01 9.217737e-01 6.690965e-01 5.935533e-01 4.679520e-01 8.017524e-04
<GCONST> 1.098036e+02
<STATE> 3
<MEAN> 39
 -4.782114e+00 9.608950e-02 -1.921409e+00 2.588094e+00 2.388403e+00 1.286509e+00 3.383949e+00 2.450940e+00 3.650770e+00 4.096845e+00 3.956140e+00 2.730444e+00 1.144139e-01 -5.372649e-01 -1.379363e+00 -1.173810e+00 -5.831168e-01 2.351574e-01 1.023989e-01 1.339975e-01 3.087882e-01 3.163467e-01 4.568709e-01 -5.312333e-03 3.827181e-01 1.199835e-02 4.197949e-01 -5.290366e-02 1.725655e-01 -5.722591e-02 -2.226711e-02 -3.161841e-01 -1.846290e-01 -1.140331e-01 -5.210352e-01 -2.359357e-01 -5.286844e-01 -2.185274e-01 4.908300e-02
<VARIANCE> 39
 1.164611e+01 1.135012e+01 1.609595e+01 1.765604e+01 1.959375e+01 2.268145e+01 2.219093e+01 2.538718e+01 2.711721e+01 2.299978e+01 1.894005e+01 1.496620e+01 2.460194e-02 2.398453e+00 2.674074e+00 3.725791e+00 3.042899e+00 3.826090e+00 3.594361e+00 3.370073e+00 3.990928e+00 4.384624e+00 3.074412e+00 3.341506e+00 2.272156e+00 7.258146e-03 4.341813e-01 4.653732e-01 6.477582e-01 5.938701e-01 7.204608e-01 6.799665e-01 6.115122e-01 7.214264e-01 7.305446e-01 5.851929e-01 5.114655e-01 3.879940e-01 6.208019e-04
<GCONST> 9.829098e+01
<STATE> 4
<MEAN> 39
 -3.449552e+00 -3.557964e+00 -3.371173e+00 2.054779e+00 6.201158e+00 1.757161e+00 3.479181e+00 2.590414e+00 1.934416e+00 3.677540e+00 -1.280873e-01 1.991044e+00 4.791454e-01 7.504892e-01 2.752014e-01 3.245279e-01 -2.369266e-01 1.128160e-02 1.502387e-01 -1.485243e-01 -4.729523e-01 -3.710826e-01 -5.857781e-01 -5.579934e-01 -4.904345e-01 5.035253e-02 3.476409e-01 3.054500e-01 1.663864e-01 -1.380750e-01 -3.490075e-01 -4.455378e-02 -2.097081e-01 -2.377456e-01 -1.547204e-01 -2.573248e-01 3.739325e-02 -1.909022e-01 -1.320991e-03
<VARIANCE> 39
 2.425041e+01 3.015238e+01 5.826024e+01 4.312541e+01 5.216789e+01 4.926775e+01 4.518557e+01 4.167449e+01 4.343653e+01 3.280175e+01 2.931318e+01 2.350415e+01 2.113491e-02 4.094575e+00 3.229219e+00 4.026226e+00 3.972377e+00 4.543546e+00 4.368448e+00 4.466377e+00 4.652821e+00 4.464651e+00 3.901718e+00 3.330485e+00 2.745241e+00 3.839565e-03 5.640451e-01 7.815749e-01 9.065111e-01 8.485590e-01 7.747301e-01 8.281717e-01 8.605102e-01 8.322695e-01 8.573352e-01 6.975996e-01 6.646262e-01 5.234095e-01 7.602381e-04
<GCONST> 1.117071e+02
<TRANSP> 5
 0.000000e+00 1.000000e+00 0.000000e+00 0.000000e+00 0.000000e+00
 0.000000e+00 4.530494e-01 5.469506e-01 0.000000e+00 0.000000e+00
 0.000000e+00 0.000000e+00 6.361716e-01 3.638284e-01 0.000000e+00
 0.000000e+00 0.000000e+00 0.000000e+00 8.041528e-01 1.958472e-01
 0.000000e+00 0.000000e+00 0.000000e+00 0.000000e+00 0.000000e+00
<ENDHMM>
~h "l"
<BEGINHMM>
<NUMSTATES> 5
<STATE> 2
<MEAN> 39
 7.948942e+00 1.592776e+00 -5.828403e+00 -1.180565e+01 1.485274e+00 4.458403e+00 -5.299774e+00 -4.720279e+00 1.245049e-01 -9.366470e-03 -1.036375e+00 -2.737370e+00 7.741697e-01 6.379219e-01 8.126221e-01 -5.633556e-01 -1.548027e+00 2.929169e-01 8.794623e-01 -3.012534e-01 -7.918937e-01 -6.069663e-01 -9.433413e-02 6.831514e-01 1.212584e-01 7.096384e-03 -2.569921e-01 -1.219508e-01 2.399484e-01 4.866458e-01 -1.228990e-01 -2.484832e-01 2.370954e-01 3.405357e-01 -1.339747e-02 -1.306027e-01 4.753652e-03 1.707376e-01 -6.415507e-03
<VARIANCE> 39
 9.474851e+00 4.054504e+01 3.441072e+01 5.956496e+01 4.397714e+01 5.308409e+01 5.895077e+01 4.675443e+01 4.959294e+01 4.140607e+01 3.953397e+01 3.085543e+01 1.414051e-02 1.572633e+00 2.380175e+00 2.172246e+00 4.540244e+00 3.254135e+00 4.039620e+00 4.288847e+00 3.602057e+00 3.510660e+00 3.356812e+00 3.284008e+00 2.853054e+00 1.826973e-03 2.745990e-01 4.000003e-01 3.122481e-01 6.963232e-01 5.683742e-01 5.419778e-01 5.658923e-01 6.757199e-01 7.667828e-01 6.194478e-01 5.572408e-01 4.507109e-01 1.599929e-04
<GCONST> 1.019873e+02
<STATE> 3
<MEAN> 39
 9.087955e+00 5.274846e+00 -5.666733e+00 -1.590652e+01 -2.830655e-01 6.905686e+00 -2.278773e+00 -4.528606e+00 -2.408542e+00 -2.281816e+00 1.360510e+00 -9.227520e-03 7.465231e-01 -1.393906e-01 2.979255e-02 1.414883e-01 5.266390e-01 2.193089e-01 -3.393007e-01 -1.548001e-01 8.824084e-02 8.331659e-02 6.998258e-02 -9.048170e-02 -1.020718e-01 -8.181555e-03 -2.580833e-01 -3.172192e-01 1.318494e-01 6.240484e-01 1.197518e-01 -2.226888e-01 -5.447822e-02 1.390378e-01 2.868454e-01 1.902236e-01 -1.982622e-01 -1.708039e-01 -4.422536e-03
<VARIANCE> 39
 7.570444e+00 2.524948e+01 3.126407e+01 5.364889e+01 4.414293e+01 4.190209e+01 5.574598e+01 4.373420e+01 4.044753e+01 3.699686e+01 3.076211e+01 2.961914e+01 1.237063e-02 5.455956e-01 2.548218e+00 1.412356e+00 3.695255e+00 2.272184e+00 2.249415e+00 2.697536e+00 2.441917e+00 2.896464e+00 2.891236e+00 2.064582e+00 1.903327e+00 1.011406e-03 1.954415e-01 2.637604e-01 2.662967e-01 5.775763e-01 4.078550e-01 4.645900e-01 4.923235e-01 5.586297e-01 5.163511e-01 4.707339e-01 4.601249e-01 3.669199e-01 1.685518e-04
<GCONST> 9.183250e+01
<STATE> 4
<MEAN> 39
 6.731426e+00 1.695817e+00 -4.334404e+00 -8.533199e+00 2.156473e+00 1.975999e+00 -6.076955e+00 -3.172224e+00 1.241209e+00 -3.245545e-01 -1.801062e+00 -2.575722e+00 7.180317e-01 -1.052397e+00 -9.290112e-01 1.198362e+00 2.404991e+00 -4.306273e-01 -1.440902e+00 3.837499e-01 1.406267e+00 6.117657e-01 -2.895645e-01 -7.739535e-01 1.072258e-01 -2.013903e-02 -2.516834e-01 2.788023e-02 2.903625e-01 1.189828e-01 -3.550333e-01 2.568009e-02 4.931851e-01 1.713858e-01 -3.263643e-01 -1.622116e-01 2.282383e-01 2.686017e-01 -5.564011e-03
<VARIANCE> 39
 1.147196e+01 3.675728e+01 3.576611e+01 5.316282e+01 3.981527e+01 6.027099e+01 6.735801e+01 5.491309e+01 5.781568e+01 4.700845e+01 3.854120e+01 3.266712e+01 2.206976e-02 1.918384e+00 2.982108e+00 3.083479e+00 6.506887e+00 5.578808e+00 3.998209e+00 5.006168e+00 4.771965e+00 5.690675e+00 4.338288e+00 3.813589e+00 3.445986e+00 3.063817e-03 3.079148e-01 4.397186e-01 4.321389e-01 7.188423e-01 6.366279e-01 7.160659e-01 7.604039e-01 9.636340e-01 1.184331e+00 8.632241e-01 6.969379e-01 5.445510e-01 2.166570e-04
<GCONST> 1.098690e+02
<TRANSP> 5
 0.000000e+00 1.000000e+00 0.000000e+00 0.000000e+00 0.000000e+00
 0.000000e+00 4.703095e-01 5.296905e-01 0.000000e+00 0.000000e+00
 0.000000e+00 0.000000e+00 7.069892e-01 2.930108e-01 0.000000e+00
 0.000000e+00 0.000000e+00 0.000000e+00 5.375354e-01 4.624646e-01
 0.000000e+00 0.000000e+00 0.000000e+00 0.000000e+00 0.000000e+00
<ENDHMM>
~h "m"
<BEGINHMM>
<NUMSTATES> 5
<STATE> 2
<MEAN> 39
 6.872097e+00 3.683742e+00 2.086729e+00 5.558444e+00 2.396810e+00 -1.307051e+00 -4.803877e+00 -7.129137e+00 -6.609677e+00 -1.870862e+00 1.445486e-01 -4.401609e+00 5.881742e-01 -1.749357e-01 1.242903e+00 1.539655e+00 2.009656e+00 1.840474e-01 -1.278318e+00 -7.034848e-01 -1.563331e+00 -1.749819e+00 3.143260e-01 2.055801e-01 -7.486742e-01 -6.545595e-03 -7.826446e-02 -5.397107e-01 -3.797251e-01 -7.378730e-01 -1.348964e-01 3.283460e-01 1.419121e-01 5.681048e-01 6.170893e-01 -5.513024e-02 -1.482321e-01 2.355823e-01 7.540113e-03
<VARIANCE> 39
 8.114573e+00 1.891714e+01 2.130381e+01 2.585715e+01 2.764362e+01 3.991249e+01 4.016704e+01 3.424025e+01 3.839603e+01 3.266056e+01 3.433346e+01 2.833753e+01 1.560713e-02 2.442809e+00 2.029802e+00 3.143809e+00 3.625396e+00 2.899099e+00 2.873188e+00 3.212420e+00 3.118761e+00 3.844976e+00 3.349976e+00 2.956125e+00 2.634196e+00 3.080600e-03 2.290401e-01 2.703607e-01 5.599999e-01 5.417634e-01 4.718152e-01 4.981756e-01 5.261041e-01 5.635388e-01 7.232963e-01 5.494881e-01 5.075110e-01 4.360646e-01 1.950520e-04
<GCONST> 9.678217e+01
<STATE> 3
<MEAN> 39
 6.765825e+00 4.238064e+00 3.450591e+00 6.555553e+00 1.450445e+00 -2.938868e+00 -5.521656e+00 -7.439485e+00 -7.347191e+00 -1.485065e+00 -2.209649e-01 -5.375045e+00 6.061656e-01 1.607258e-01 -4.633301e-01 -4.434684e-01 -9.091156e-01 -4.096611e-01 3.115309e-01 2.055865e-01 6.511751e-01 7.076014e-01 -1.940668e-01 -2.267420e-01 2.822657e-01 1.101773e-02 7.578784e-03 -5.129303e-01 -4.718753e-01 -8.545176e-01 -1.389323e-01 4.677515e-01 2.635640e-01 6.577544e-01 6.690380e-01 -1.359503e-01 -1.325984e-01 3.473712e-01 4.547635e-03
<VARIANCE> 39
 5.443305e+00 1.473740e+01 1.816315e+01 2.417923e+01 2.925351e+01 4.011557e+01 3.940479e+01 3.561784e+01 3.899879e+01 3.661209e+01 4.159963e+01 3.309462e+01 1.385057e-02 7.357139e-01 1.888995e+00 2.109318e+00 3.270566e+00 1.823900e+00 2.087209e+00 2.108914e+00 2.618554e+00 3.195035e+00 2.039725e+00 1.981035e+00 2.057096e+00 9.721670e-04 2.059560e-01 2.515403e-01 5.060891e-01 5.499473e-01 4.510818e-01 4.611707e-01 5.072424e-01 5.590039e-01 7.167594e-01 5.604924e-01 5.160166e-01 5.068038e-01 1.692388e-04
<GCONST> 9.031564e+01
<STATE> 4
<MEAN> 39
 8.143306e+00 -1.041895e+00 -4.412759e+00 -3.122059e+00 3.828184e+00 4.357280e+00 -4.266454e+00 -2.604835e+00 6.673804e-01 -3.418967e+00 -2.046261e+00 -2.663985e+00 6.688042e-01 -1.478513e-01 -8.271086e-01 -5.031847e-01 -1.028386e+00 -1.567287e-02 4.995943e-01 2.337548e-01 1.154590e+00 1.111110e+00 -3.037604e-01 -6.388614e-01 3.829296e-01 7.081053e-03 -2.022409e-01 8.685499e-02 2.777037e-01 2.806720e-01 2.407052e-02 -1.363984e-01 6.098851e-02 -4.145324e-02 -2.344140e-01 9.045203e-02 5.031092e-02 8.592769e-03 -4.888390e-03
<VARIANCE> 39
 8.024507e+00 2.499364e+01 3.466265e+01 4.998248e+01 4.094859e+01 5.704536e+01 3.781069e+01 3.361420e+01 3.896191e+01 3.846009e+01 2.828834e+01 2.288340e+01 1.301880e-02 9.421218e-01 2.418097e+00 3.141725e+00 5.081090e+00 3.084677e+00 3.238307e+00 2.666817e+00 3.237632e+00 3.963737e+00 2.805889e+00 2.293418e+00 2.456032e+00 1.340557e-03 1.302299e-01 2.635094e-01 3.316435e-01 5.344635e-01 3.760484e-01 3.957159e-01 3.578770e-01 4.116607e-01 5.025034e-01 3.286128e-01 3.004854e-01 2.983140e-01 8.759456e-05
<GCONST> 9.187848e+01
<TRANSP> 5
 0.000000e+00 1.000000e+00 0.000000e+00 0.000000e+00 0.000000e+00
 0.000000e+00 4.332986e-01 5.667014e-01 0.000000e+00 0.000000e+00
 0.000000e+00 0.000000e+00 6.719987e-01 3.280013e-01 0.000000e+00
 0.000000e+00 0.000000e+00 0.000000e+00 6.481791e-01 3.518209e-01
 0.000000e+00 0.000000e+00 0.000000e+00 0.000000e+00 0.000000e+00
<ENDHMM>
~h "n"
<BEGINHMM>
<NUMSTATES> 5
<STATE> 2
<MEAN> 39
 6.484352e+00 2.490400e+00 3.892827e+00 2.638002e+00 -3.346132e+00 -3.196934e+00 -2.690928e+00 -2.880406e+00 -4.764396e+00 -2.924391e+00 -3.195969e+00 -2.357647e+00 6.282323e-01 2.201486e-01 2.003690e+00 1.945631e-01 1.872639e+00 2.049287e-01 -4.398986e-01 4.796732e-01 -2.368816e+00 -9.719120e-01 6.768070e-01 -2.648653e-01 -4.021281e-01 -2.737047e-02 -2.380273e-01 -2.445484e-01 -3.400448e-02 -3.579398e-01 4.317455e-02 2.541714e-01 1.023995e-01 2.035518e-01 1.879889e-01 1.428951e-02 3.155931e-02 5.491788e-02 2.339169e-03
<VARIANCE> 39
 6.664992e+00 2.241516e+01 2.493773e+01 2.946139e+01 3.041085e+01 3.115579e+01 3.172514e+01 4.783493e+01 4.135755e+01 3.584462e+01 3.089041e+01 3.014501e+01 1.385300e-02 1.012629e+00 2.405711e+00 3.590794e+00 3.099512e+00 3.894703e+00 3.780817e+00 4.006833e+00 4.649803e+00 4.786615e+00 3.730138e+00 2.776480e+00 2.585701e+00 9.890074e-04 1.667487e-01 3.115847e-01 3.821069e-01 4.322589e-01 5.101129e-01 4.639626e-01 4.578399e-01 6.962787e-01 5.441911e-01 4.813062e-01 3.914690e-01 3.865039e-01 1.046749e-04
<GCONST> 9.443436e+01
<STATE> 3
<MEAN> 39
 6.428324e+00 5.575092e+00 4.364069e+00 4.395972e+00 -3.128721e+00 -3.023268e+00 -1.472892e+00 -6.626712e+00 -5.886719e+00 -1.532365e+00 -3.567937e+00 -2.968227e+00 5.832720e-01 -2.166333e-01 6.808371e-01 1.444815e-01 3.811936e-01 3.831610e-01 1.406780e-01 1.074908e-01 -4.459854e-01 -1.732293e-01 4.518167e-02 -2.445222e-02 -4.278540e-02 -1.383691e-02 -3.054335e-01 -4.764111e-01 -5.851498e-02 -4.099774e-01 1.743158e-01 2.401287e-01 -6.027327e-02 6.798683e-01 3.494812e-01 -1.526827e-01 1.395244e-01 1.573837e-01 1.135467e-03
<VARIANCE> 39
 6.637079e+00 1.623579e+01 1.777665e+01 2.367975e+01 2.501717e+01 2.675365e+01 3.263726e+01 3.387627e+01 3.263932e+01 3.500620e+01 2.792897e+01 2.936029e+01 1.680758e-02 5.338440e-01 1.661081e+00 1.269283e+00 1.677329e+00 1.895328e+00 1.622477e+00 1.769211e+00 2.571102e+00 1.998836e+00 1.782763e+00 1.545702e+00 1.489950e+00 5.917765e-04 2.156606e-01 4.120824e-01 4.243342e-01 5.132266e-01 5.051430e-01 4.935516e-01 5.253093e-01 6.675401e-01 6.036520e-01 5.319966e-01 3.970203e-01 4.073183e-01 1.338822e-04
<GCONST> 8.526651e+01
<STATE> 4
<MEAN> 39
 4.969296e+00 5.502584e+00 4.617691e+00 4.546960e+00 -1.363441e+00 -2.226546e+00 -1.887312e+00 -5.154490e+00 -5.332611e+00 -2.550792e+00 -3.477427e+00 -2.562069e+00 5.482022e-01 -1.481504e+00 -7.415793e-01 -1.905537e-01 -4.962536e-01 1.011914e+00 9.747000e-01 2.469320e-01 1.381284e+00 1.033411e+00 -2.689627e-02 5.289977e-01 4.700174e-01 -2.358022e-02 -4.519556e-01 -5.830172e-01 -3.071062e-01 -4.726939e-01 -4.714772e-02 2.359569e-01 1.678814e-01 5.799462e-01 4.607683e-01 1.626322e-01 2.332551e-01 2.031163e-01 4.618265e-03
<VARIANCE> 39
 1.174416e+01 2.861154e+01 2.092743e+01 2.953363e+01 3.430333e+01 2.989585e+01 3.325937e+01 3.882816e+01 3.581327e+01 3.430345e+01 2.593220e+01 2.560204e+01 2.390343e-02 2.501665e+00 3.682180e+00 3.286861e+00 4.302581e+00 4.236262e+00 3.390335e+00 4.062371e+00 4.494883e+00 4.112999e+00 3.802561e+00 2.979618e+00 2.883696e+00 2.323353e-03 4.405317e-01 6.024153e-01 5.252988e-01 5.965978e-01 6.517583e-01 5.725115e-01 6.451335e-01 8.036517e-01 6.924420e-01 6.365966e-01 4.797732e-01 4.673163e-01 2.941616e-04
<GCONST> 1.025950e+02
<TRANSP> 5
 0.000000e+00 1.000000e+00 0.000000e+00 0.000000e+00 0.000000e+00
 0.000000e+00 3.135708e-01 6.864293e-01 0.000000e+00 0.000000e+00
 0.000000e+00 0.000000e+00 6.027939e-01 3.972062e-01 0.000000e+00
 0.000000e+00 0.000000e+00 0.000000e+00 3.756239e-01 6.243761e-01
 0.000000e+00 0.000000e+00 0.000000e+00 0.000000e+00 0.000000e+00
<ENDHMM>
~h "p"
<BEGINHMM>
<NUMSTATES> 5
<STATE> 2
<MEAN> 39
 -5.355602e-01 4.563118e+00 1.640791e+00 4.996157e+00 4.623435e+00 2.594464e+00 2.325688e+00 -5.841709e-01 5.389231e-01 8.561817e-01 8.391218e-01 -4.619691e-01 2.768995e-01 -1.937819e+00 -6.732147e-01 -5.946283e-01 -1.216390e-02 1.117480e-01 4.722384e-01 1.164806e+00 1.039611e+00 1.314419e+00 9.642320e-01 9.388614e-01 8.436890e-01 -9.487378e-02 2.165728e-02 -5.974991e-01 -3.152237e-01 -4.747648e-01 -4.303192e-01 -2.526248e-01 -1.696934e-01 1.195800e-01 1.046570e-01 1.600184e-01 8.062918e-02 1.440435e-01 2.091741e-02
<VARIANCE> 39
 2.363737e+01 1.595471e+01 2.265850e+01 2.090328e+01 1.978921e+01 2.338619e+01 2.554352e+01 2.673013e+01 3.139890e+01 2.397683e+01 2.202548e+01 1.939755e+01 3.620761e-02 3.367164e+00 2.818775e+00 3.172781e+00 2.937392e+00 2.853268e+00 3.110712e+00 3.055673e+00 3.392396e+00 3.497629e+00 2.840808e+00 2.668708e+00 2.121961e+00 5.997454e-03 4.675464e-01 4.034149e-01 4.858897e-01 5.118964e-01 4.766506e-01 4.667775e-01 5.428056e-01 5.729107e-01 5.861216e-01 4.955585e-01 4.353636e-01 3.684094e-01 8.377204e-04
<GCONST> 9.783284e+01
<STATE> 3
<MEAN> 39
 -5.189405e+00 2.020022e-01 -2.140783e+00 1.831002e+00 2.324256e+00 1.756669e+00 3.357636e+00 1.582003e+00 3.875305e+00 4.062737e+00 4.065657e+00 2.585925e+00 9.430634e-02 -6.595003e-02 -6.088495e-01 7.603630e-02 2.243276e-01 3.952308e-02 1.292873e-01 3.279628e-01 4.619640e-01 4.749856e-01 2.599387e-01 9.349051e-02 3.307267e-01 3.494225e-02 5.754092e-01 1.689652e-01 4.147273e-01 2.780291e-01 1.752585e-01 7.164929e-02 -3.923997e-02 -6.777909e-02 -2.251849e-01 -2.499778e-01 -3.219048e-01 -2.031687e-01 4.146683e-02
<VARIANCE> 39
 9.543847e+00 9.800329e+00 1.258225e+01 1.430574e+01 1.380737e+01 1.722264e+01 1.695172e+01 1.924976e+01 2.275706e+01 2.027931e+01 1.662070e+01 1.286310e+01 2.736154e-02 1.899373e+00 1.591152e+00 2.352602e+00 2.301251e+00 1.981376e+00 2.037245e+00 2.238518e+00 2.461093e+00 2.585074e+00 2.308895e+00 2.004806e+00 1.696151e+00 7.293906e-03 3.811395e-01 2.898947e-01 3.843597e-01 3.966413e-01 3.823340e-01 4.189731e-01 5.043155e-01 5.034846e-01 5.182312e-01 4.608861e-01 3.821348e-01 3.156098e-01 8.665822e-04
<GCONST> 8.667110e+01
<STATE> 4
<MEAN> 39
 -1.804479e+00 -1.036160e+00 2.376608e+00 4.815508e+00 4.109522e+00 4.209747e+00 6.388530e+00 2.922197e+00 3.409410e+00 3.064812e+00 1.792389e+00 1.956776e+00 4.973378e-01 1.394127e+00 -1.871242e-01 1.463990e-01 -5.538081e-01 -5.864807e-01 -3.476482e-01 -4.344369e-01 -4.876375e-01 -9.476637e-01 -7.527013e-01 -8.172712e-01 -5.770211e-01 6.234482e-02 3.373584e-01 5.137508e-02 -3.242620e-01 -4.787389e-01 -4.432043e-01 -4.228251e-01 -5.804725e-01 -2.873802e-01 -3.674255e-01 -2.698808e-01 -8.292644e-02 -1.974644e-01 -5.637212e-03
<VARIANCE> 39
 1.979571e+01 2.610698e+01 4.892584e+01 3.632201e+01 3.867039e+01 3.743647e+01 3.600650e+01 3.464999e+01 3.363335e+01 2.704894e+01 2.530685e+01 1.905830e+01 2.479161e-02 3.855597e+00 2.731511e+00 4.416278e+00 4.691537e+00 4.185578e+00 4.393556e+00 5.242859e+00 4.435515e+00 4.120832e+00 3.392634e+00 2.841484e+00 2.394551e+00 6.247575e-03 5.490666e-01 5.082160e-01 5.450339e-01 7.055844e-01 6.093820e-01 6.689641e-01 7.304227e-01 8.206218e-01 7.918385e-01 6.464837e-01 5.697893e-01 4.678164e-01 1.182491e-03
<GCONST> 1.076591e+02
<TRANSP> 5
 0.000000e+00 1.000000e+00 0.000000e+00 0.000000e+00 0.000000e+00
 0.000000e+00 5.000191e-01 4.999809e-01 0.000000e+00 0.000000e+00
 0.000000e+00 0.000000e+00 7.075808e-01 2.924192e-01 0.000000e+00
 0.000000e+00 0.000000e+00 0.000000e+00 7.700818e-01 2.299182e-01
 0.000000e+00 0.000000e+00 0.000000e+00 0.000000e+00 0.000000e+00
<ENDHMM>
~h "r"
<BEGINHMM>
<NUMSTATES> 5
<STATE> 2
<MEAN> 39
 1.120676e+01 -2.724199e+00 -7.009538e+00 2.569319e+00 1.841173e+00 -5.152230e+00 -7.435236e+00 4.115215e-01 -1.297882e+00 -2.159785e+00 -7.977039e-02 -2.692283e-01 7.334307e-01 1.551445e+00 -7.046897e-01 -1.037868e+00 -1.613517e-01 -1.075974e-01 -1.416251e+00 -1.613438e+00 7.699671e-01 2.161542e-01 -5.327485e-01 -2.209518e-01 -3.295206e-02 3.783208e-02 -6.255870e-01 -1.888073e-01 5.324501e-01 -3.380653e-02 -3.175244e-01 2.149299e-01 5.431101e-01 2.061605e-01 1.557138e-02 1.395221e-01 8.402244e-02 -1.440278e-02 -6.396244e-03
<VARIANCE> 39
 1.586879e+01 3.351741e+01 5.673395e+01 3.058223e+01 4.566011e+01 5.906218e+01 5.585870e+01 6.531671e+01 4.734191e+01 3.303609e+01 2.712188e+01 3.114492e+01 1.517036e-02 3.803726e+00 2.689920e+00 4.316755e+00 3.766896e+00 4.777259e+00 4.889576e+00 4.807190e+00 5.151490e+00 5.504608e+00 3.681909e+00 2.978626e+00 2.550507e+00 2.580730e-03 4.998950e-01 4.355063e-01 5.657633e-01 4.260135e-01 5.673613e-01 7.485277e-01 9.514248e-01 8.401056e-01 6.680692e-01 5.915354e-01 4.625340e-01 4.456169e-01 2.444898e-04
<GCONST> 1.071196e+02
<STATE> 3
<MEAN> 39
 1.204929e+01 -6.163081e+00 -7.299043e+00 3.971630e+00 1.345673e+00 -1.071433e+01 -9.656482e+00 6.794180e+00 1.504011e+00 -3.088745e+00 -2.665796e-01 5.016730e-01 7.784387e-01 -1.245565e-01 -1.912730e-01 5.628220e-01 1.489692e-01 -4.900696e-01 -3.717092e-01 1.800058e-01 3.539486e-01 -1.399192e-01 -2.103564e-01 -4.847145e-03 1.907494e-02 -1.495706e-03 -3.826940e-01 1.452475e-01 6.256774e-01 -1.112728e-01 -3.781987e-01 3.615490e-01 6.030093e-01 -2.861857e-01 -3.617825e-01 1.136075e-01 1.647603e-01 -4.554151e-02 -6.382291e-03
<VARIANCE> 39
 7.618020e+00 1.967962e+01 4.719255e+01 2.707624e+01 4.981582e+01 5.591488e+01 6.731814e+01 5.484092e+01 5.875297e+01 3.277600e+01 2.666230e+01 2.973944e+01 1.031538e-02 7.645558e-01 1.623119e+00 3.396833e+00 1.814278e+00 3.812723e+00 2.543229e+00 3.227436e+00 3.087972e+00 2.913401e+00 2.258590e+00 1.946371e+00 1.560734e+00 7.219453e-04 2.072535e-01 1.860771e-01 2.408323e-01 2.649406e-01 3.729030e-01 4.756100e-01 4.724520e-01 4.956238e-01 4.585254e-01 3.907251e-01 2.792280e-01 2.679627e-01 1.109669e-04
<GCONST> 8.941084e+01
<STATE> 4
<MEAN> 39
 9.779554e+00 -6.676979e+00 -1.672792e+00 3.691801e+00 -4.074581e+00 -9.992727e+00 -4.958384e+00 6.140607e+00 -2.942967e+00 -3.591374e+00 1.088988e+00 -3.682300e-01 7.612881e-01 -1.238146e+00 5.557171e-01 2.492045e+00 -4.681151e-01 -1.424953e+00 9.809766e-01 1.770096e+00 -1.083383e+00 -1.062897e+00 4.523688e-01 2.898619e-01 -3.374766e-01 -2.010739e-02 -3.547434e-01 4.341378e-01 3.661670e-02 -2.985362e-01 3.878835e-01 6.790335e-01 7.703958e-02 -5.732498e-01 1.942043e-01 3.691639e-01 -1.406474e-01 -7.951493e-02 -9.365442e-03
<VARIANCE> 39
 9.887074e+00 2.511610e+01 6.244736e+01 3.799813e+01 5.414094e+01 6.601696e+01 5.946661e+01 5.178930e+01 6.226302e+01 4.141471e+01 3.717069e+01 3.185943e+01 1.561723e-02 1.219336e+00 2.752385e+00 2.741846e+00 3.348083e+00 4.555598e+00 3.540468e+00 3.992454e+00 4.294860e+00 4.031136e+00 3.285708e+00 2.808896e+00 2.510036e+00 1.708323e-03 2.970025e-01 3.224383e-01 4.224498e-01 5.075736e-01 5.530443e-01 6.592298e-01 7.306778e-01 7.616070e-01 6.794645e-01 5.375537e-01 5.205954e-01 4.096210e-01 1.825550e-04
<GCONST> 1.025234e+02
<TRANSP> 5
 0.000000e+00 1.000000e+00 0.000000e+00 0.000000e+00 0.000000e+00
 0.000000e+00 4.557234e-01 5.442766e-01 0.000000e+00 0.000000e+00
 0.000000e+00 0.000000e+00 6.495458e-01 3.504542e-01 0.000000e+00
 0.000000e+00 0.000000e+00 0.000000e+00 4.672512e-01 5.327489e-01
 0.000000e+00 0.000000e+00 0.000000e+00 0.000000e+00 0.000000e+00
<ENDHMM>
~h "s"
<BEGINHMM>
<NUMSTATES> 5
<STATE> 2
<MEAN> 39
 -1.107285e+01 8.473945e+00 -6.212857e-01 4.260584e+00 5.010032e+00 1.922949e-01 4.750641e+00 8.474612e-01 1.475721e+00 1.878582e-01 -6.049739e-02 1.567347e+00 6.272921e-01 -4.200016e+00 1.285058e+00 -1.395692e+00 5.228348e-01 1.436829e+00 1.142765e+00 1.540493e+00 8.638257e-01 7.355662e-01 7.213493e-01 1.044390e+00 6.850851e-01 2.317535e-02 6.077707e-01 -4.945457e-01 -1.310144e-01 -3.400684e-01 -4.425697e-01 -1.491598e-01 -4.468662e-01 -6.954942e-02 -1.130906e-01 1.994166e-02 -4.526975e-02 -8.414877e-02 5.640232e-03
<VARIANCE> 39
 5.147002e+01 2.569091e+01 3.884030e+01 4.514830e+01 3.674807e+01 4.338137e+01 3.370022e+01 3.215683e+01 2.913970e+01 2.686713e+01 2.714007e+01 1.853080e+01 1.868103e-02 3.836865e+00 3.349975e+00 3.924706e+00 5.087208e+00 3.918943e+00 4.489989e+00 3.916033e+00 3.576421e+00 3.647507e+00 3.456897e+00 3.140212e+00 2.228714e+00 2.275315e-03 8.754950e-01 5.114681e-01 7.078399e-01 6.826168e-01 6.291976e-01 7.660151e-01 6.656247e-01 6.408342e-01 5.379299e-01 5.598781e-01 5.217429e-01 4.139135e-01 3.780349e-04
<GCONST> 1.053225e+02
<STATE> 3
<MEAN> 39
 -1.768343e+01 9.545248e+00 -5.965408e+00 5.189722e+00 5.498139e+00 1.863916e+00 6.131909e+00 1.499964e+00 2.718051e+00 1.762197e+00 2.018475e+00 2.837580e+00 7.060019e-01 -1.310043e-01 -9.912980e-02 -3.626186e-03 -1.999898e-01 1.093393e-02 -2.139388e-03 -1.544707e-02 7.338000e-02 6.606347e-02 6.611215e-02 2.861157e-02 5.977722e-02 8.467785e-04 6.782246e-01 -2.329976e-01 3.912420e-01 -1.232657e-01 -1.325348e-01 -1.528796e-01 -1.849900e-01 -5.424694e-02 -4.218018e-02 -7.867169e-02 -1.272518e-01 -8.582564e-02 -1.115940e-02
<VARIANCE> 39
 1.466924e+01 1.731488e+01 2.066538e+01 5.252505e+01 2.896656e+01 3.365870e+01 2.184260e+01 2.050161e+01 2.391755e+01 1.720837e+01 2.333010e+01 1.244174e+01 1.477709e-02 1.048768e+00 1.168935e+00 1.443046e+00 1.293402e+00 1.345349e+00 1.520346e+00 1.449427e+00 1.437438e+00 1.387593e+00 1.348691e+00 1.205593e+00 1.067184e+00 9.204966e-04 3.566371e-01 2.538989e-01 2.559373e-01 2.944403e-01 3.047993e-01 3.592286e-01 3.496740e-01 3.209018e-01 3.181292e-01 3.065642e-01 2.921105e-01 2.367413e-01 2.056003e-04
<GCONST> 7.795741e+01
<STATE> 4
<MEAN> 39
 -1.283467e+01 6.569957e+00 -1.145636e+00 2.474664e+00 5.421030e+00 8.339690e-01 4.519506e+00 2.353096e+00 2.962036e+00 1.772118e+00 1.091690e+00 2.446845e+00 5.835147e-01 3.441514e+00 -1.292923e+00 1.157462e+00 -5.392696e-01 -1.207140e+00 -5.516040e-01 -1.285753e+00 -4.575615e-01 -1.572297e-01 -2.242104e-01 -4.588740e-01 -4.917526e-01 -4.279167e-02 5.538636e-01 -3.249581e-01 -1.582450e-01 -1.205876e-01 -4.157498e-01 -9.648076e-02 -3.076166e-01 -1.785685e-01 -1.339408e-01 -7.025712e-02 -8.475824e-02 -1.425099e-01 4.866189e-03
<VARIANCE> 39
 4.563237e+01 2.573242e+01 3.033615e+01 4.250533e+01 3.550945e+01 3.992786e+01 3.392429e+01 2.854300e+01 2.997063e+01 2.345663e+01 2.898983e+01 1.712883e+01 3.016733e-02 4.555645e+00 2.769081e+00 3.117301e+00 4.182512e+00 3.728044e+00 4.872455e+00 4.045878e+00 3.308779e+00 3.146575e+00 2.791353e+00 3.062606e+00 2.009875e+00 4.759190e-03 7.903128e-01 5.349176e-01 5.270203e-01 6.231442e-01 5.887880e-01 7.413086e-01 7.666650e-01 5.843267e-01 5.677416e-01 4.980425e-01 5.360149e-01 3.769908e-01 7.955667e-04
<GCONST> 1.049358e+02
<TRANSP> 5
 0.000000e+00 1.000000e+00 0.000000e+00 0.000000e+00 0.000000e+00
 0.000000e+00 6.361184e-01 3.638817e-01 0.000000e+00 0.000000e+00
 0.000000e+00 0.000000e+00 8.149075e-01 1.850925e-01 0.000000e+00
 0.000000e+00 0.000000e+00 0.000000e+00 6.684449e-01 3.315551e-01
 0.000000e+00 0.000000e+00 0.000000e+00 0.000000e+00 0.000000e+00
<ENDHMM>
~h "t"
<BEGINHMM>
<NUMSTATES> 5
<STATE> 2
<MEAN> 39
 -1.572584e+00 3.439533e+00 2.194675e+00 3.973747e+00 1.440636e+00 -3.949606e-01 1.021944e-01 -1.211762e+00 2.711394e-01 2.213284e-01 -8.722652e-02 -2.616922e-01 3.252779e-01 -1.464201e+00 -5.579669e-01 -6.969056e-01 -3.002514e-02 7.911183e-01 1.005633e+00 1.058244e+00 5.636784e-01 8.029051e-01 6.313635e-01 8.258024e-01 5.432371e-01 -6.227056e-02 -6.537452e-02 -3.893377e-01 -1.028137e-01 -5.796216e-01 -3.737569e-01 -7.879478e-02 2.933845e-02 2.114895e-01 -3.253933e-05 1.253641e-01 1.004900e-01 1.391904e-01 3.094947e-02
<VARIANCE> 39
 3.625375e+01 2.457920e+01 3.374958e+01 2.901634e+01 3.344337e+01 3.315917e+01 3.093067e+01 3.146968e+01 3.373118e+01 2.826613e+01 2.579660e+01 2.048609e+01 4.846908e-02 4.237648e+00 4.689694e+00 4.182326e+00 4.368318e+00 4.611465e+00 3.795592e+00 3.797726e+00 4.294218e+00 4.256047e+00 3.650323e+00 3.135354e+00 2.517765e+00 6.861160e-03 4.421743e-01 6.449557e-01 5.890664e-01 6.809728e-01 7.538044e-01 6.417049e-01 6.200119e-01 6.711813e-01 6.352922e-01 6.028243e-01 5.277894e-01 4.305354e-01 9.517410e-04
<GCONST> 1.075579e+02
<STATE> 3
<MEAN> 39
 -7.490489e+00 4.831314e-01 -1.347209e-01 5.233036e-01 2.339482e+00 2.109254e+00 3.632310e+00 1.510601e+00 3.007202e+00 3.412122e+00 3.346426e+00 2.661051e+00 3.798777e-01 -9.716334e-01 -1.453968e-01 3.278304e-01 -4.436782e-01 -1.117916e-01 1.426716e-01 6.668403e-01 3.739196e-01 2.713928e-02 8.970535e-02 1.417737e-01 3.976650e-01 5.212805e-02 5.146071e-01 2.831067e-01 3.319245e-01 1.929598e-01 -2.389182e-01 -3.319617e-01 -2.548448e-01 -1.534466e-01 -3.246670e-01 -3.493150e-01 -3.788922e-01 -2.216582e-01 1.603116e-02
<VARIANCE> 39
 3.735067e+01 3.345230e+01 3.008177e+01 2.863359e+01 3.013320e+01 2.968043e+01 3.004771e+01 2.704184e+01 2.904584e+01 2.559117e+01 2.311942e+01 1.610292e+01 7.727374e-02 3.715587e+00 3.744513e+00 3.448111e+00 3.205802e+00 3.015053e+00 3.019717e+00 3.015821e+00 3.120701e+00 3.048229e+00 2.784637e+00 2.334714e+00 1.928712e+00 7.399171e-03 7.805665e-01 8.238252e-01 6.172184e-01 7.405714e-01 7.630390e-01 6.831151e-01 6.728528e-01 6.532165e-01 6.340969e-01 5.789022e-01 5.104276e-01 3.976047e-01 2.026147e-03
<GCONST> 1.057596e+02
<STATE> 4
<MEAN> 39
 -6.163149e+00 7.117711e-01 3.381523e+00 2.488189e+00 1.152632e+00 7.442790e-01 4.158793e+00 1.772845e+00 1.362372e+00 7.647577e-01 6.324053e-01 2.012068e+00 5.394474e-01 2.107879e+00 -1.763745e-01 3.146499e-01 8.661788e-02 -8.590636e-01 -9.021691e-01 -1.014125e+00 -4.247022e-01 -6.955382e-01 -7.844459e-01 -8.320997e-01 -5.734866e-01 2.196151e-02 6.281233e-01 -1.198613e-01 -2.673221e-01 -2.462246e-01 -2.222665e-01 -1.766671e-01 -5.295842e-01 -1.882747e-01 -1.438599e-01 -4.328832e-02 -5.030276e-02 -2.103449e-01 2.853269e-03
<VARIANCE> 39
 5.278764e+01 3.765054e+01 4.037455e+01 3.549143e+01 4.237717e+01 3.986864e+01 4.355796e+01 3.857220e+01 3.464386e+01 2.806261e+01 2.784467e+01 2.086055e+01 3.730365e-02 6.344238e+00 3.254327e+00 4.233771e+00 4.341065e+00 4.919171e+00 4.862586e+00 4.891658e+00 4.040630e+00 4.066557e+00 3.408429e+00 3.315464e+00 2.512022e+00 4.389831e-03 7.951452e-01 6.069480e-01 6.216441e-01 6.552194e-01 7.584735e-01 7.774869e-01 7.974526e-01 7.550669e-01 6.796249e-01 5.885831e-01 5.971031e-01 4.656043e-01 8.031211e-04
<GCONST> 1.107857e+02
<TRANSP> 5
 0.000000e+00 1.000000e+00 0.000000e+00 0.000000e+00 0.000000e+00
 0.000000e+00 4.206043e-01 5.793958e-01 0.000000e+00 0.000000e+00
 0.000000e+00 0.000000e+00 5.826423e-01 4.173577e-01 0.000000e+00
 0.000000e+00 0.000000e+00 0.000000e+00 5.656022e-01 4.343978e-01
 0.000000e+00 0.000000e+00 0.000000e+00 0.000000e+00 0.000000e+00
<ENDHMM>
~h "v"
<BEGINHMM>
<NUMSTATES> 5
<STATE> 2
<MEAN> 39
 5.837773e+00 2.915622e+00 2.080166e-01 3.417821e+00 1.687129e+00 -1.043104e+00 -4.172132e+00 -4.528432e+00 -1.078063e+00 3.581867e-01 -1.053270e+00 -2.423841e+00 5.646574e-01 -2.092189e+00 1.949556e+00 7.067918e-01 2.006097e+00 1.674021e+00 1.191643e+00 1.122513e+00 -3.314113e-01 -4.427519e-01 -4.833758e-01 -1.276707e-01 1.517268e-01 -7.525195e-02 -4.220378e-01 -4.482176e-01 4.270526e-02 -3.437906e-01 -3.111092e-01 4.543849e-02 2.912661e-01 5.403900e-01 1.662975e-01 -7.632816e-02 -1.197045e-01 8.759894e-02 5.512255e-03
<VARIANCE> 39
 1.269161e+01 1.467444e+01 2.178402e+01 1.933242e+01 1.715673e+01 2.613604e+01 2.463150e+01 2.347614e+01 2.272257e+01 2.465791e+01 2.353228e+01 1.946453e+01 1.269670e-02 2.126394e+00 2.203493e+00 2.714140e+00 3.049001e+00 2.609110e+00 3.316497e+00 3.318534e+00 3.576588e+00 3.222788e+00 2.690775e+00 2.724719e+00 2.221243e+00 1.320979e-03 2.932455e-01 3.144150e-01 3.378253e-01 3.572562e-01 3.709743e-01 4.100145e-01 4.838081e-01 4.540787e-01 4.659732e-01 4.476398e-01 4.156855e-01 3.593686e-01 2.225361e-04
<GCONST> 8.934658e+01
<STATE> 3
<MEAN> 39
 2.895865e-01 5.668133e+00 2.713341e+00 6.963225e+00 4.176748e+00 1.872792e+00 -9.036171e-01 -3.332745e+00 -2.125307e+00 -1.833005e+00 -2.447691e+00 -2.342703e+00 4.258605e-01 -2.042848e+00 1.656148e-01 2.337489e-01 6.688594e-01 4.302532e-01 6.437975e-01 1.056629e+00 7.378944e-01 2.378107e-01 -1.295500e-01 4.217600e-02 3.540929e-01 -3.918524e-02 5.469964e-01 -8.052196e-01 -4.232536e-01 -8.859839e-01 -7.076865e-01 -4.667602e-01 -2.781852e-01 2.444138e-01 2.722607e-01 2.972254e-01 1.812237e-01 1.293347e-01 2.723807e-02
<VARIANCE> 39
 1.958500e+01 1.247026e+01 1.790028e+01 1.798315e+01 1.661595e+01 2.100805e+01 2.328215e+01 2.118172e+01 2.020440e+01 2.229461e+01 1.767039e+01 1.864174e+01 1.460893e-02 2.948032e+00 1.842930e+00 1.901168e+00 2.242019e+00 1.975431e+00 2.526097e+00 2.423776e+00 2.340979e+00 2.290122e+00 2.200817e+00 2.287621e+00 1.705117e+00 1.971818e-03 4.373367e-01 3.590766e-01 4.728997e-01 4.524141e-01 4.725322e-01 4.890884e-01 5.318233e-01 5.537743e-01 5.306302e-01 4.730060e-01 4.094828e-01 4.042685e-01 3.026300e-04
<GCONST> 8.855808e+01
<STATE> 4
<MEAN> 39
 -3.091757e+00 2.861054e+00 5.628536e-01 5.097125e+00 2.915082e+00 1.829516e+00 9.915192e-01 -8.036609e-01 2.269083e-01 6.226864e-02 -6.516755e-01 -1.881464e-01 4.149925e-01 6.401335e-01 -8.781350e-01 -6.260250e-01 -1.231992e+00 -9.028576e-01 -6.595773e-01 -2.730029e-01 3.302151e-01 3.388255e-01 3.366632e-01 3.414864e-01 2.799153e-01 3.604786e-02 9.289418e-01 -2.582910e-01 -9.555323e-02 -5.538693e-01 -3.814473e-01 -3.326708e-01 -4.485028e-01 -1.156837e-01 -8.456388e-02 5.499800e-03 -2.333210e-02 -1.399269e-01 2.405809e-02
<VARIANCE> 39
 4.194331e+01 1.953523e+01 2.376158e+01 2.318166e+01 2.140395e+01 2.565607e+01 2.788050e+01 2.705112e+01 2.563061e+01 2.260811e+01 1.939487e+01 1.839128e+01 2.772842e-02 6.318470e+00 2.463177e+00 2.994013e+00 3.360208e+00 3.093820e+00 3.235712e+00 3.452327e+00 3.109427e+00 3.016072e+00 2.638131e+00 2.501859e+00 2.229296e+00 4.038793e-03 6.966815e-01 5.434228e-01 5.519342e-01 6.196637e-01 5.651959e-01 6.506451e-01 6.278177e-01 6.571298e-01 6.213296e-01 5.275460e-01 5.366414e-01 4.271873e-01 4.792949e-04
<GCONST> 1.001350e+02
<TRANSP> 5
 0.000000e+00 1.000000e+00 0.000000e+00 0.000000e+00 0.000000e+00
 0.000000e+00 3.872056e-01 6.127945e-01 0.000000e+00 0.000000e+00
 0.000000e+00 0.000000e+00 4.408832e-01 5.591167e-01 0.000000e+00
 0.000000e+00 0.000000e+00 0.000000e+00 5.305324e-01 4.694676e-01
 0.000000e+00 0.000000e+00 0.000000e+00 0.000000e+00 0.000000e+00
<ENDHMM>
~h "w"
<BEGINHMM>
<NUMSTATES> 5
<STATE> 2
<MEAN> 39
 9.139687e+00 7.711801e+00 -1.397113e+00 -3.855576e+00 -3.060587e+00 1.529802e+00 -1.940446e-01 -3.240261e+00 -4.151450e+00 -2.362414e+00 -1.564761e+00 -1.836363e+00 6.037756e-01 1.348815e+00 5.853351e-01 -4.558118e-01 -1.816719e+00 -1.210952e+00 2.301580e-01 -8.495156e-02 -5.995201e-02 -4.566180e-01 -4.218562e-01 -1.261748e-01 -1.163717e-01 4.394146e-02 -1.833086e-01 -5.909683e-01 -1.978614e-01 -1.626939e-01 1.369618e-01 1.709449e-01 -1.942826e-01 1.044184e-01 1.116375e-01 2.768809e-01 2.061601e-01 1.358704e-01 4.800156e-03
<VARIANCE> 39
 1.364174e+01 1.988684e+01 1.960317e+01 3.786046e+01 3.914467e+01 2.658545e+01 2.980279e+01 2.687390e+01 2.776318e+01 2.278593e+01 2.201323e+01 1.922877e+01 1.687729e-02 2.948158e+00 2.416208e+00 2.714321e+00 4.804004e+00 3.805757e+00 3.700867e+00 4.030193e+00 4.023425e+00 4.034048e+00 3.054887e+00 3.110928e+00 2.404080e+00 3.840073e-03 2.623741e-01 3.790324e-01 4.257646e-01 6.127995e-01 6.609721e-01 6.796632e-01 6.525500e-01 6.508080e-01 6.746430e-01 6.321586e-01 5.328929e-01 4.078985e-01 2.400808e-04
<GCONST> 9.884203e+01
<STATE> 3
<MEAN> 39
 1.219963e+01 4.133917e+00 -5.956879e+00 -1.191101e+01 -4.817229e+00 6.567911e+00 -4.858668e-01 -2.959555e+00 -6.172376e+00 -2.737068e+00 9.033142e-01 3.860372e-01 7.720057e-01 5.881225e-01 -1.873759e+00 -1.106900e+00 -1.224788e+00 6.214581e-01 1.009872e+00 -1.534513e+00 -8.839030e-01 -3.049188e-01 9.817941e-01 9.205644e-01 2.504313e-02 5.125329e-02 -6.593683e-01 -5.352381e-01 2.962797e-01 9.872752e-01 5.989709e-01 -4.823872e-01 -3.501282e-01 1.601054e-01 7.307892e-01 5.018440e-01 -1.637270e-01 -3.211094e-01 -1.446854e-02
<VARIANCE> 39
 6.544803e+00 2.080777e+01 2.456017e+01 4.235804e+01 4.235425e+01 4.403173e+01 4.147955e+01 4.800264e+01 4.096445e+01 4.013701e+01 3.571103e+01 2.727443e+01 9.453111e-03 1.574351e+00 2.108495e+00 2.216505e+00 4.772595e+00 5.640138e+00 5.153741e+00 4.485838e+00 3.670159e+00 3.840563e+00 4.885786e+00 4.160090e+00 2.991704e+00 1.499575e-03 2.851713e-01 3.568754e-01 3.817142e-01 5.175517e-01 6.814456e-01 8.000813e-01 7.208760e-01 9.381335e-01 7.403730e-01 6.164521e-01 6.736311e-01 5.546907e-01 2.364508e-04
<GCONST> 1.019481e+02
<STATE> 4
<MEAN> 39
 1.059787e+01 -2.294957e+00 -6.718503e+00 -8.660874e+00 7.072994e-01 4.818723e+00 -7.744487e+00 -4.966234e+00 -2.467755e+00 3.414648e+00 7.337713e-01 -3.182470e+00 8.235603e-01 -6.713095e-01 -1.911126e+00 7.081243e-01 1.340300e+00 1.972318e-01 -1.922830e+00 -1.464442e+00 1.130624e+00 1.928452e+00 6.454274e-01 -1.196195e+00 -9.315854e-01 1.626693e-02 -3.761817e-01 4.025409e-01 5.892588e-01 4.942929e-01 -4.364633e-01 -4.843725e-01 7.784771e-01 6.247227e-01 4.094579e-02 -7.139577e-01 -3.628567e-01 2.757373e-01 -1.528959e-02
<VARIANCE> 39
 8.443772e+00 2.504828e+01 3.419389e+01 4.761792e+01 4.559324e+01 7.062133e+01 5.707943e+01 4.352049e+01 5.035775e+01 5.230714e+01 6.205808e+01 3.343860e+01 8.558389e-03 6.783245e-01 1.505590e+00 2.568090e+00 3.671071e+00 4.126076e+00 4.467800e+00 4.272593e+00 4.548041e+00 3.432673e+00 4.607779e+00 3.427563e+00 2.904139e+00 5.006960e-04 2.545360e-01 3.392557e-01 3.674072e-01 6.220276e-01 8.626474e-01 9.309206e-01 8.327001e-01 7.058040e-01 9.418706e-01 8.078217e-01 9.620773e-01 6.034747e-01 1.755696e-04
<GCONST> 1.025394e+02
<TRANSP> 5
 0.000000e+00 1.000000e+00 0.000000e+00 0.000000e+00 0.000000e+00
 0.000000e+00 6.749647e-01 3.250353e-01 0.000000e+00 0.000000e+00
 0.000000e+00 0.000000e+00 5.214615e-01 4.785385e-01 0.000000e+00
 0.000000e+00 0.000000e+00 0.000000e+00 4.910880e-01 5.089120e-01
 0.000000e+00 0.000000e+00 0.000000e+00 0.000000e+00 0.000000e+00
<ENDHMM>
~h "y"
<BEGINHMM>
<NUMSTATES> 5
<STATE> 2
<MEAN> 39
 9.425930e-01 4.913034e+00 1.403771e+01 -2.339151e+00 -6.228066e+00 -1.184783e+00 -3.921468e+00 -5.133316e+00 -6.912594e+00 -1.783623e+00 -2.282520e+00 -2.012428e+00 6.633409e-01 5.366729e-01 -1.641468e-01 1.872861e+00 -9.662461e-01 -1.994440e+00 1.428371e-01 -4.298028e-01 -5.239385e-01 -1.396693e+00 1.825739e-01 2.463593e-01 -4.687412e-01 2.641883e-02 -1.759917e-02 -2.805315e-01 -5.958672e-01 7.543902e-02 1.007839e-01 2.829913e-04 1.107766e-01 2.509842e-01 2.840680e-01 2.011518e-01 1.139728e-01 1.178058e-02 -6.246571e-04
<VARIANCE> 39
 1.655209e+01 2.998717e+01 3.494566e+01 4.615868e+01 4.417290e+01 3.728944e+01 3.470052e+01 4.605231e+01 3.279935e+01 3.488290e+01 3.454489e+01 2.530688e+01 1.436604e-02 3.932073e+00 2.662072e+00 3.655621e+00 3.924327e+00 5.031935e+00 5.432989e+00 4.861999e+00 4.470537e+00 4.761781e+00 4.517567e+00 3.488096e+00 2.484772e+00 1.817945e-03 3.287621e-01 3.338215e-01 4.675684e-01 6.044012e-01 7.628666e-01 7.099468e-01 6.577948e-01 7.684693e-01 5.891029e-01 5.524414e-01 5.006663e-01 4.101289e-01 1.602661e-04
<GCONST> 1.037306e+02
<STATE> 3
<MEAN> 39
 1.947398e+00 2.627501e+00 1.650191e+01 -4.983211e+00 -1.192089e+01 -1.088508e-01 -3.542204e+00 -6.137223e+00 -9.359489e+00 1.074852e+00 -1.636615e+00 -3.433955e+00 7.368671e-01 3.896692e-01 -8.282668e-01 -4.199113e-01 3.746603e-01 -8.894720e-01 -7.471066e-01 4.838287e-01 6.123102e-01 -3.651889e-01 1.416743e-01 5.071138e-01 1.450764e-02 1.235311e-02 6.776530e-02 -8.285103e-02 -5.549698e-01 3.388000e-01 4.333486e-01 -3.479099e-01 -2.417734e-04 3.778698e-01 2.304427e-01 -2.253006e-01 3.814491e-02 1.615720e-01 -3.063546e-03
<VARIANCE> 39
 6.971715e+00 1.809637e+01 2.720627e+01 5.040380e+01 2.685851e+01 3.857827e+01 3.297693e+01 3.665718e+01 3.310723e+01 4.622707e+01 4.615237e+01 2.441467e+01 8.406089e-03 7.041230e-01 1.171689e+00 1.495125e+00 1.559629e+00 1.750870e+00 2.499075e+00 2.334648e+00 2.440038e+00 1.720216e+00 1.802389e+00 1.535195e+00 1.228328e+00 3.810139e-04 1.312702e-01 1.592461e-01 2.897227e-01 3.078232e-01 4.627512e-01 3.932185e-01 4.080765e-01 3.790623e-01 4.249316e-01 3.966359e-01 3.133987e-01 2.483393e-01 6.878533e-05
<GCONST> 8.135055e+01
<STATE> 4
<MEAN> 39
 4.569410e+00 -2.148072e+00 1.129067e+01 7.645135e-01 -1.281236e+01 -6.865568e+00 -1.789883e+00 1.102665e+00 -9.544116e+00 -2.139234e+00 2.282058e+00 -1.459094e+00 7.689481e-01 7.378408e-01 -7.458233e-01 -1.944981e+00 7.778015e-01 1.092942e+00 -1.377668e+00 -8.162252e-01 1.666449e+00 1.000374e+00 -8.509710e-01 -1.221128e-01 5.905156e-01 4.421451e-03 -3.851286e-02 2.869633e-01 -2.063729e-01 -1.123338e-01 6.430566e-01 3.983145e-01 -3.680006e-01 -3.562823e-01 4.747817e-01 7.292385e-02 -3.801660e-01 -5.289634e-02 -6.142930e-03
<VARIANCE> 39
 7.742525e+00 1.664432e+01 3.190661e+01 4.431129e+01 2.380726e+01 4.158022e+01 3.589221e+01 4.038819e+01 4.051825e+01 5.130027e+01 3.656010e+01 2.440322e+01 8.659915e-03 4.779597e-01 9.096389e-01 1.827616e+00 1.464231e+00 1.887197e+00 2.156431e+00 2.547962e+00 2.584066e+00 2.699762e+00 1.982449e+00 1.932093e+00 1.367185e+00 2.630776e-04 1.171494e-01 1.435004e-01 3.100574e-01 3.060697e-01 4.377069e-01 4.215993e-01 4.380206e-01 4.767093e-01 4.466962e-01 4.525333e-01 2.972924e-01 2.994038e-01 7.392639e-05
<GCONST> 8.226909e+01
<TRANSP> 5
 0.000000e+00 1.000000e+00 0.000000e+00 0.000000e+00 0.000000e+00
 0.000000e+00 6.197852e-01 3.802148e-01 0.000000e+00 0.000000e+00
 0.000000e+00 0.000000e+00 7.166942e-01 2.833057e-01 0.000000e+00
 0.000000e+00 0.000000e+00 0.000000e+00 5.916743e-01 4.083257e-01
 0.000000e+00 0.000000e+00 0.000000e+00 0.000000e+00 0.000000e+00
<ENDHMM>
~h "z"
<BEGINHMM>
<NUMSTATES> 5
<STATE> 2
<MEAN> 39
 -5.940817e+00 1.157200e+01 2.143362e+00 3.726661e+00 3.320191e+00 -4.145628e+00 -8.324522e-01 -3.137559e+00 -6.965788e-01 -1.529815e+00 -2.249210e+00 4.125114e-01 6.065620e-01 -4.545139e+00 1.867544e+00 -1.126066e+00 7.922691e-01 2.353621e+00 1.553859e+00 2.054548e+00 9.316532e-01 5.951489e-01 4.008431e-01 6.585899e-01 2.644295e-01 -3.192484e-03 1.333076e-01 -8.530561e-01 -2.575784e-01 -2.908226e-01 -3.127525e-01 2.261106e-01 7.375051e-02 3.890937e-01 1.261138e-01 2.187671e-01 1.957204e-01 5.937546e-02 1.069163e-02
<VARIANCE> 39
 4.149379e+01 2.848739e+01 3.813784e+01 4.424007e+01 4.869756e+01 4.631359e+01 3.559168e+01 3.123222e+01 2.675114e+01 2.994455e+01 2.199666e+01 1.962592e+01 1.461013e-02 2.483666e+00 4.287441e+00 3.583138e+00 6.027793e+00 3.681516e+00 4.725541e+00 3.784802e+00 3.819692e+00 3.369032e+00 3.064087e+00 2.808465e+00 2.713323e+00 1.530501e-03 8.955681e-01 5.783653e-01 5.851747e-01 6.823520e-01 7.470052e-01 8.510816e-01 6.953202e-01 6.025596e-01 4.892116e-01 5.298567e-01 4.292834e-01 4.418890e-01 1.231546e-04
<GCONST> 1.033806e+02
<STATE> 3
<MEAN> 39
 -1.691053e+01 1.051907e+01 -4.218029e+00 4.273581e+00 6.605223e+00 7.557595e-01 5.735194e+00 1.236714e+00 2.460668e+00 1.327017e+00 1.266818e+00 2.299884e+00 6.639388e-01 -4.917045e-01 -6.946469e-01 -3.861292e-01 -3.065486e-01 3.864456e-02 1.707046e-01 3.337933e-01 4.903725e-01 3.994984e-01 3.250580e-01 2.865660e-01 2.650838e-01 -8.633423e-05 1.163378e+00 -3.509472e-01 4.805042e-01 -1.557126e-01 -4.158841e-01 -3.547749e-01 -5.345793e-01 -2.412802e-01 -1.333763e-01 -1.363723e-01 -2.041676e-01 -1.194946e-01 -1.090297e-02
<VARIANCE> 39
 1.550557e+01 2.054207e+01 3.119953e+01 5.487385e+01 3.479224e+01 3.345639e+01 2.616596e+01 2.461907e+01 2.534936e+01 1.952071e+01 2.402781e+01 1.416591e+01 1.587964e-02 3.475796e+00 1.639056e+00 2.715236e+00 1.880780e+00 1.990175e+00 2.690399e+00 2.365615e+00 2.145716e+00 1.966882e+00 1.933334e+00 1.700083e+00 1.426941e+00 1.258972e-03 5.562704e-01 3.907508e-01 3.747328e-01 5.234104e-01 5.206772e-01 5.907393e-01 5.336356e-01 4.499550e-01 4.123095e-01 3.968392e-01 3.683035e-01 3.106734e-01 2.703583e-04
<GCONST> 9.056828e+01
<STATE> 4
<MEAN> 39
 -9.903451e+00 5.498337e+00 -1.602798e-01 2.219683e+00 4.938787e+00 -2.835902e-01 2.204789e+00 1.599878e+00 2.819035e+00 1.518271e+00 3.038348e-01 1.745251e+00 5.003865e-01 2.915650e+00 -1.415038e+00 4.333350e-01 -2.304792e-01 -1.084786e+00 -1.893330e-01 -9.390227e-01 -3.922698e-01 -6.753894e-02 -3.991556e-02 -1.642183e-01 -2.909543e-01 -4.452080e-02 2.781953e-01 -1.161390e-02 -1.611785e-01 -5.596208e-02 -1.877636e-01 -6.369992e-03 -5.977274e-02 -1.529747e-01 -1.678439e-01 -6.751321e-02 -2.571623e-02 -8.306716e-02 4.698104e-03
<VARIANCE> 39
 4.807536e+01 3.446067e+01 3.291781e+01 4.363897e+01 4.375795e+01 4.797278e+01 4.100840e+01 3.785042e+01 3.564145e+01 2.912949e+01 3.017000e+01 2.050879e+01 3.956308e-02 4.641643e+00 3.200081e+00 3.234217e+00 4.202064e+00 4.046504e+00 4.845645e+00 4.379494e+00 3.705837e+00 3.559178e+00 3.137034e+00 2.978026e+00 2.180746e+00 4.955153e-03 9.478726e-01 5.788990e-01 5.150731e-01 6.530195e-01 7.226596e-01 8.516698e-01 7.875537e-01 7.258763e-01 6.305971e-01 5.872821e-01 5.475631e-01 4.162073e-01 7.656965e-04
<GCONST> 1.091651e+02
<TRANSP> 5
 0.000000e+00 1.000000e+00 0.000000e+00 0.000000e+00 0.000000e+00
 0.000000e+00 6.548839e-01 3.451160e-01 0.000000e+00 0.000000e+00
 0.000000e+00 0.000000e+00 7.610146e-01 2.389854e-01 0.000000e+00
 0.000000e+00 0.000000e+00 0.000000e+00 6.745886e-01 3.254114e-01
 0.000000e+00 0.000000e+00 0.000000e+00 0.000000e+00 0.000000e+00
<ENDHMM>
~h "sil"
<BEGINHMM>
<NUMSTATES> 5
<STATE> 2
<MEAN> 39
 -5.222269e+00 -1.599805e+00 -2.063546e+00 1.552017e+00 1.986095e+00 6.615813e-01 2.490253e+00 1.448644e+00 2.448945e+00 1.344937e+00 2.598383e+00 2.507119e+00 6.519523e-02 -6.811889e-02 -3.204254e-02 -6.873882e-02 -4.797062e-02 -4.384508e-02 -3.015933e-04 -7.817445e-03 -1.778996e-02 2.495923e-02 7.094537e-02 7.422127e-02 1.590913e-02 -5.000380e-03 2.523575e-02 2.781728e-02 2.650226e-02 1.646973e-02 1.720240e-02 9.998097e-03 4.967031e-03 -4.938222e-03 -1.175970e-02 -1.204902e-02 -2.488893e-02 -1.723496e-02 2.467174e-03
<VARIANCE> 39
 8.976937e+00 1.439548e+01 1.422095e+01 1.381163e+01 1.605437e+01 1.873375e+01 1.806947e+01 2.131027e+01 2.191356e+01 2.507093e+01 2.123329e+01 1.414127e+01 2.200160e-02 2.764008e-01 4.428039e-01 5.827526e-01 7.430175e-01 9.301829e-01 1.104165e+00 1.254709e+00 1.357679e+00 1.417571e+00 1.512921e+00 1.343024e+00 1.129141e+00 3.846589e-04 4.976821e-02 8.041050e-02 1.141373e-01 1.503299e-01 1.862560e-01 2.189071e-01 2.494672e-01 2.730567e-01 2.873624e-01 2.972338e-01 2.683308e-01 2.293615e-01 7.819291e-05
<GCONST> 6.243654e+01
<STATE> 3
~s "silst"
<STATE> 4
<MEAN> 39
 -3.322226e+00 8.320701e-01 -1.717561e-02 2.299286e+00 2.814368e+00 1.874772e+00 3.163331e+00 5.863863e-01 1.187384e+00 7.619252e-01 4.281592e-01 8.587012e-01 2.259371e-01 4.123760e-01 1.156478e-01 3.270072e-01 -1.804070e-01 -2.523311e-01 -9.013513e-02 -1.604441e-01 -2.195308e-01 -3.779842e-01 -3.235680e-01 -3.276401e-01 -2.372542e-01 3.413202e-02 1.358697e-01 -5.302007e-02 -1.679284e-02 -1.569374e-01 -1.774147e-01 -9.393991e-02 -1.258016e-01 -1.556131e-02 -1.326194e-02 1.100993e-02 3.121411e-02 9.562312e-03 9.676311e-03
<VARIANCE> 39
 3.210386e+01 2.705165e+01 3.399156e+01 3.504035e+01 3.945750e+01 3.412566e+01 3.281546e+01 3.229382e+01 3.288676e+01 3.063189e+01 2.909707e+01 2.059007e+01 6.589644e-02 3.734105e+00 2.777362e+00 3.387475e+00 3.348154e+00 3.554580e+00 3.128214e+00 3.140258e+00 3.332273e+00 3.501515e+00 3.290760e+00 3.045226e+00 2.196716e+00 7.686688e-03 4.568833e-01 4.097773e-01 4.643298e-01 5.325736e-01 5.652887e-01 5.316276e-01 5.542819e-01 5.501262e-01 5.540472e-01 5.197181e-01 4.767680e-01 3.655547e-01 7.503779e-04
<GCONST> 1.036397e+02
<TRANSP> 5
 0.000000e+00 1.000000e+00 0.000000e+00 0.000000e+00 0.000000e+00
 0.000000e+00 8.824329e-01 7.053303e-02 4.703409e-02 0.000000e+00
 0.000000e+00 0.000000e+00 6.919549e-01 3.080451e-01 0.000000e+00
 0.000000e+00 7.224082e-02 0.000000e+00 6.069354e-01 3.208237e-01
 0.000000e+00 0.000000e+00 0.000000e+00 0.000000e+00 0.000000e+00
<ENDHMM>
~h "aa"
<BEGINHMM>
<NUMSTATES> 5
<STATE> 2
<MEAN> 39
 8.103505e+00 -6.525617e+00 -8.076149e+00 -5.662797e+00 4.012702e+00 5.809633e+00 -1.739087e+00 -2.044846e+00 4.926779e-01 -1.874627e+00 -3.585314e+00 -4.551420e+00 7.875040e-01 1.336904e+00 -1.335119e+00 -1.404329e+00 -1.425416e+00 9.896833e-02 1.161638e+00 -6.276886e-01 -5.347192e-01 1.425582e-02 -3.836863e-01 -3.985583e-02 -7.069055e-01 4.646135e-02 -6.251298e-01 1.943543e-01 2.984396e-01 4.376599e-01 2.751009e-01 -5.616738e-02 1.676773e-01 1.795943e-01 1.061820e-01 1.593118e-01 2.683515e-01 3.339432e-01 -1.456878e-02
<VARIANCE> 39
 1.186571e+01 2.364320e+01 2.948550e+01 4.099314e+01 4.892756e+01 5.296045e+01 5.358889e+01 4.910846e+01 4.141834e+01 4.144730e+01 3.911581e+01 2.784651e+01 1.278989e-02 2.632056e+00 2.167064e+00 2.699103e+00 3.606346e+00 3.855678e+00 3.703622e+00 4.240004e+00 4.249604e+00 3.508760e+00 2.983894e+00 3.086450e+00 2.742069e+00 1.552804e-03 3.166049e-01 3.983793e-01 3.731932e-01 5.199053e-01 5.474071e-01 6.280988e-01 6.406733e-01 8.275547e-01 6.336925e-01 5.462607e-01 5.660151e-01 4.412405e-01 2.189811e-04
<GCONST> 1.015253e+02
<STATE> 3
<MEAN> 39
 8.777826e+00 -8.005441e+00 -1.018929e+01 -8.162924e+00 6.462671e+00 9.649446e+00 -2.798397e+00 -3.127452e+00 9.457268e-01 -2.651946e+00 -1.889408e+00 -4.363157e+00 8.361827e-01 6.764498e-02 1.467610e-01 -8.330279e-02 -2.179988e-02 1.043526e-01 -5.457039e-02 -1.485790e-01 1.733548e-01 6.776307e-02 -1.406109e-01 1.585129e-01 1.183569e-01 -2.893027e-03 -1.173025e-02 2.412402e-01 1.767904e-01 1.677697e-01 -1.964270e-01 -3.013312e-01 6.322327e-02 1.129602e-01 -6.199382e-02 2.956270e-02 -3.110725e-02 5.961706e-02 -5.347568e-03
<VARIANCE> 39
 9.009647e+00 2.208183e+01 2.151861e+01 4.849043e+01 4.224406e+01 4.582895e+01 6.631813e+01 4.503032e+01 3.877739e+01 3.897668e+01 3.215704e+01 2.795823e+01 8.826871e-03 2.286274e-01 7.468414e-01 6.462342e-01 1.187062e+00 1.180973e+00 1.782229e+00 1.370288e+00 1.574552e+00 1.196955e+00 1.094079e+00 1.232331e+00 1.032569e+00 1.401494e-04 5.254955e-02 1.241067e-01 1.396103e-01 1.846452e-01 2.014299e-01 2.174838e-01 2.439880e-01 2.514093e-01 2.254369e-01 2.067625e-01 1.955157e-01 1.774133e-01 3.620422e-05
<GCONST> 6.873757e+01
<STATE> 4
<MEAN> 39
 9.263649e+00 -5.685952e+00 -8.616930e+00 -6.675559e+00 4.191215e+00 6.457541e+00 -2.406447e+00 -1.232447e+00 8.100359e-01 -2.716460e+00 -1.962529e+00 -3.607472e+00 7.702084e-01 -2.237559e-01 1.737185e+00 1.573518e+00 1.735154e+00 -9.056333e-01 -1.603761e+00 2.667550e-01 5.656041e-02 -7.279775e-01 4.522056e-01 1.689745e-01 3.670278e-01 -4.312684e-02 -3.505397e-01 3.094936e-01 4.844719e-01 6.218753e-01 1.179954e-01 -1.752582e-01 -3.139308e-02 -3.472810e-01 -2.381693e-01 1.761659e-01 7.067590e-02 4.540009e-02 -1.137509e-02
<VARIANCE> 39
 9.213633e+00 2.878575e+01 2.714550e+01 4.210258e+01 3.825554e+01 5.634390e+01 5.665890e+01 4.476171e+01 3.976583e+01 4.297432e+01 4.087445e+01 3.175941e+01 1.217609e-02 9.662746e-01 1.989340e+00 2.601162e+00 3.559491e+00 3.046335e+00 3.029181e+00 3.175168e+00 3.974151e+00 4.033389e+00 2.897026e+00 2.573106e+00 2.131831e+00 1.020554e-03 1.870377e-01 3.104557e-01 3.384949e-01 4.835021e-01 4.549893e-01 6.031349e-01 5.103088e-01 5.773349e-01 5.382549e-01 4.571383e-01 4.541449e-01 3.925460e-01 1.572394e-04
<GCONST> 9.587109e+01
<TRANSP> 5
 0.000000e+00 1.000000e+00 0.000000e+00 0.000000e+00 0.000000e+00
 0.000000e+00 6.901145e-01 3.098855e-01 0.000000e+00 0.000000e+00
 0.000000e+00 0.000000e+00 8.334411e-01 1.665589e-01 0.000000e+00
 0.000000e+00 0.000000e+00 0.000000e+00 6.109504e-01 3.890496e-01
 0.000000e+00 0.000000e+00 0.000000e+00 0.000000e+00 0.000000e+00
<ENDHMM>
~h "ae"
<BEGINHMM>
<NUMSTATES> 5
<STATE> 2
<MEAN> 39
 5.009446e+00 -6.784998e+00 1.158903e+00 -3.757165e+00 -5.895353e+00 -1.277843e+00 3.012279e+00 3.516565e+00 -1.141673e+00 -3.449847e+00 -3.807020e+00 -2.223267e+00 7.632628e-01 7.418975e-01 -1.753392e+00 -3.704456e-01 -9.888234e-01 -5.964131e-01 2.354474e-01 7.396186e-02 5.570096e-01 -3.143235e-01 -7.987440e-01 -5.370309e-01 -4.170089e-01 4.484008e-02 -4.740406e-01 3.688145e-01 -7.236771e-02 3.745442e-01 5.113856e-01 2.535105e-01 3.420062e-02 -2.048355e-01 8.324599e-02 1.837257e-01 2.376886e-01 1.755695e-01 -1.598186e-02
<VARIANCE> 39
 1.271929e+01 2.691246e+01 3.858974e+01 2.933576e+01 3.953273e+01 3.793603e+01 4.328728e+01 4.305353e+01 5.031271e+01 3.489883e+01 2.850860e+01 2.397687e+01 1.673762e-02 2.155357e+00 2.446706e+00 2.690650e+00 2.759683e+00 3.357385e+00 3.250728e+00 3.754127e+00 3.489641e+00 3.571133e+00 2.903565e+00 2.537166e+00 2.258125e+00 2.019290e-03 3.720700e-01 4.150983e-01 3.758585e-01 4.373212e-01 5.006920e-01 5.470018e-01 6.055917e-01 6.147320e-01 6.089258e-01 5.041366e-01 4.659587e-01 3.863636e-01 3.246001e-04
<GCONST> 9.892039e+01
<STATE> 3
<MEAN> 39
 5.357492e+00 -9.964851e+00 -9.836905e-01 -3.734528e+00 -3.416434e+00 1.088145e+00 2.813786e+00 3.189453e+00 -1.792350e+00 -5.622891e+00 -4.441495e+00 -2.082597e+00 8.211849e-01 7.234456e-02 4.402452e-03 -2.369048e-01 9.057801e-02 3.283753e-01 -1.069142e-02 -2.211966e-01 -1.785587e-02 7.919543e-02 -9.274959e-02 -6.925292e-02 2.869738e-02 -1.958484e-03 2.427459e-02 3.431145e-01 6.725182e-02 1.134868e-01 2.230814e-02 -1.504478e-01 -1.228405e-01 -8.277418e-02 3.594329e-02 1.600453e-01 4.291783e-02 -5.398605e-04 -5.876315e-03
<VARIANCE> 39
 9.682594e+00 2.238849e+01 3.960249e+01 2.685206e+01 4.133250e+01 3.598242e+01 3.577871e+01 4.064064e+01 5.377970e+01 3.365148e+01 2.569873e+01 2.681518e+01 9.517374e-03 2.961254e-01 9.008374e-01 1.017624e+00 9.117105e-01 1.422830e+00 1.413598e+00 1.550154e+00 1.484620e+00 1.389441e+00 1.336288e+00 1.098091e+00 9.882405e-01 1.960470e-04 6.400467e-02 1.650698e-01 1.610535e-01 1.977984e-01 2.252871e-01 2.141538e-01 2.507685e-01 2.876876e-01 2.413164e-01 2.306296e-01 2.046500e-01 1.877337e-01 5.229167e-05
<GCONST> 7.062946e+01
<STATE> 4
<MEAN> 39
 6.631090e+00 -6.841904e+00 -1.847747e+00 -2.657337e+00 -2.654181e+00 -1.770295e+00 5.716917e-01 3.328675e+00 1.145171e-01 -3.667445e+00 -4.705631e+00 -2.344554e+00 7.651302e-01 -2.812957e-01 2.415474e+00 7.006581e-01 1.319554e+00 5.530479e-01 -3.522582e-01 -4.489014e-01 -7.520749e-01 -6.682308e-02 8.163785e-01 4.822036e-01 1.657772e-01 -4.900493e-02 -5.105917e-01 4.906420e-01 2.228409e-01 4.298216e-01 2.706648e-01 3.039554e-01 2.287801e-01 -2.686936e-01 -1.217533e-01 8.561559e-02 2.225317e-01 9.406718e-02 -1.499887e-02
<VARIANCE> 39
 9.876209e+00 2.598896e+01 3.905446e+01 2.775996e+01 3.981316e+01 4.127062e+01 4.808454e+01 4.419246e+01 5.193661e+01 4.367409e+01 3.266251e+01 3.113439e+01 1.131447e-02 1.841867e+00 2.287773e+00 2.502557e+00 2.873046e+00 3.146067e+00 3.217733e+00 3.682281e+00 4.198649e+00 3.771861e+00 2.964612e+00 2.730087e+00 2.422900e+00 1.305886e-03 3.529545e-01 4.143761e-01 4.346856e-01 4.234529e-01 5.595738e-01 5.699867e-01 5.795020e-01 7.336560e-01 6.824414e-01 5.669569e-01 5.395365e-01 4.214586e-01 2.081513e-04
<GCONST> 9.905524e+01
<TRANSP> 5
 0.000000e+00 1.000000e+00 0.000000e+00 0.000000e+00 0.000000e+00
 0.000000e+00 6.141744e-01 3.858256e-01 0.000000e+00 0.000000e+00
 0.000000e+00 0.000000e+00 8.313453e-01 1.686548e-01 0.000000e+00
 0.000000e+00 0.000000e+00 0.000000e+00 6.174620e-01 3.825380e-01
 0.000000e+00 0.000000e+00 0.000000e+00 0.000000e+00 0.000000e+00
<ENDHMM>
~h "ah"
<BEGINHMM>
<NUMSTATES> 5
<STATE> 2
<MEAN> 39
 5.977949e+00 -1.526452e+00 7.118619e-01 -3.186448e+00 -2.969181e+00 -2.764521e+00 -3.913546e+00 -7.820959e-03 6.280735e-01 -1.265877e+00 -3.094591e+00 -1.116566e+00 7.204553e-01 1.644309e+00 -9.252591e-01 -9.034897e-02 -1.168849e+00 -8.657501e-01 -3.612432e-01 -1.133660e+00 1.237885e-01 -8.731172e-02 -2.938325e-01 -6.037140e-01 -3.885519e-01 3.246028e-02 -6.792028e-01 3.880571e-01 -2.155584e-02 4.489640e-01 4.818266e-01 3.871531e-01 4.302214e-01 -1.189574e-01 -1.065905e-01 1.276160e-01 2.823494e-01 7.641667e-02 -1.817680e-02
<VARIANCE> 39
 1.475790e+01 3.148620e+01 4.642643e+01 4.267324e+01 4.917385e+01 5.649888e+01 4.549997e+01 4.277995e+01 4.295318e+01 4.186896e+01 3.386787e+01 2.739154e+01 1.553742e-02 4.110002e+00 3.204462e+00 3.460271e+00 5.179270e+00 4.314121e+00 4.718396e+00 4.816386e+00 4.702847e+00 4.157445e+00 3.625469e+00 3.775381e+00 3.042331e+00 2.246080e-03 5.379544e-01 5.174682e-01 4.821111e-01 6.285229e-01 6.716238e-01 7.917156e-01 7.738603e-01 7.875372e-01 7.696712e-01 6.588472e-01 6.246914e-01 5.151845e-01 3.939684e-04
<GCONST> 1.084776e+02
<STATE> 3
<MEAN> 39
 6.679257e+00 -3.886444e+00 -2.608735e-01 -4.956162e+00 -2.623278e+00 -1.673862e+00 -4.340904e+00 1.088898e+00 9.324328e-01 -1.564123e+00 -3.616668e+00 -1.712190e+00 7.606890e-01 6.721346e-02 7.172651e-01 1.637837e-01 3.771019e-01 2.793489e-01 5.698406e-02 -3.609308e-02 -4.565460e-01 -3.160578e-01 3.031257e-03 1.266146e-01 2.312856e-02 -1.502606e-02 -4.572281e-01 6.846493e-01 1.318583e-01 6.510487e-01 3.754113e-01 1.285423e-01 3.413384e-01 -3.293338e-01 -1.779959e-01 5.767820e-02 1.855680e-01 5.151117e-02 -1.864833e-02
<VARIANCE> 39
 1.111518e+01 2.876670e+01 5.038039e+01 4.484140e+01 4.967900e+01 6.215377e+01 4.683378e+01 4.628239e+01 4.637553e+01 4.690898e+01 3.893511e+01 3.309431e+01 1.484432e-02 1.046690e+00 1.986598e+00 2.193588e+00 3.091338e+00 2.791800e+00 2.815695e+00 2.703407e+00 3.002032e+00 2.708456e+00 2.388192e+00 2.275208e+00 2.019641e+00 9.251038e-04 4.372294e-01 3.953935e-01 4.382438e-01 5.913630e-01 6.392250e-01 7.318781e-01 7.345552e-01 7.554482e-01 6.786584e-01 5.924433e-01 5.721751e-01 4.846400e-01 2.371093e-04
<GCONST> 9.973350e+01
<STATE> 4
<MEAN> 39
 6.199172e+00 1.200536e+00 1.347396e+00 -1.169296e+00 -1.216322e+00 -1.844137e+00 -3.971138e+00 -1.629113e+00 -3.590468e-01 -1.327106e+00 -2.416760e+00 -8.607635e-01 6.493109e-01 -1.149292e+00 2.039973e+00 4.894715e-01 1.869595e+00 1.232572e+00 5.782700e-01 9.628792e-01 -8.633627e-01 -6.043547e-01 -4.095891e-02 2.998784e-01 -2.710506e-02 -6.055038e-02 -5.894188e-01 3.243011e-02 -1.136802e-01 1.530052e-01 2.148762e-01 2.351789e-01 3.875269e-01 1.218738e-01 7.197995e-02 1.034643e-01 1.369459e-01 6.199170e-03 -1.049015e-02
<VARIANCE> 39
 1.552574e+01 2.562785e+01 4.331287e+01 5.797210e+01 4.887088e+01 5.729740e+01 4.050745e+01 4.301392e+01 4.045280e+01 4.336065e+01 3.469459e+01 2.850977e+01 1.947910e-02 2.770080e+00 2.879976e+00 3.071081e+00 4.542808e+00 4.165865e+00 4.360189e+00 4.168861e+00 4.534007e+00 4.355109e+00 3.768698e+00 3.424501e+00 2.923704e+00 2.274206e-03 3.946907e-01 4.523232e-01 4.840502e-01 7.382039e-01 6.041868e-01 6.794267e-01 6.021422e-01 7.423835e-01 6.599300e-01 6.336750e-01 5.859255e-01 4.636039e-01 3.016945e-04
<GCONST> 1.061582e+02
<TRANSP> 5
 0.000000e+00 1.000000e+00 0.000000e+00 0.000000e+00 0.000000e+00
 0.000000e+00 2.933285e-01 7.066715e-01 0.000000e+00 0.000000e+00
 0.000000e+00 0.000000e+00 5.253973e-01 4.746027e-01 0.000000e+00
 0.000000e+00 0.000000e+00 0.000000e+00 2.730520e-01 7.269480e-01
 0.000000e+00 0.000000e+00 0.000000e+00 0.000000e+00 0.000000e+00
<ENDHMM>
~h "ao"
<BEGINHMM>
<NUMSTATES> 5
<STATE> 2
<MEAN> 39
 1.041384e+01 8.671268e-01 -7.467305e+00 -1.068984e+01 -3.973637e+00 4.934368e+00 -9.121605e-02 -1.110654e+00 -2.960827e+00 -1.307195e+00 -6.664502e-01 -2.154857e+00 7.823593e-01 1.581558e+00 -6.417153e-01 -1.298660e+00 -2.042914e+00 -5.819390e-01 7.519013e-01 -1.332466e-01 -1.924485e-02 -6.099178e-01 -3.848540e-01 3.046256e-01 -1.800529e-01 5.555332e-02 -6.857007e-01 -2.114449e-01 1.150165e-01 6.862661e-01 5.609549e-01 1.444742e-03 7.019488e-02 8.176180e-02 1.555035e-01 1.515951e-01 2.149561e-01 2.115372e-01 -1.517228e-02
<VARIANCE> 39
 1.444951e+01 4.352442e+01 2.925098e+01 5.011331e+01 6.446544e+01 5.521472e+01 5.528631e+01 4.506580e+01 4.734449e+01 4.631290e+01 3.935995e+01 3.112247e+01 1.456313e-02 3.024678e+00 2.616451e+00 2.612772e+00 4.780183e+00 5.886296e+00 4.934346e+00 4.190191e+00 4.226287e+00 4.505400e+00 4.037540e+00 3.489512e+00 3.060016e+00 2.407753e-03 4.099625e-01 5.183985e-01 4.149535e-01 7.269301e-01 7.591521e-01 6.606408e-01 7.244676e-01 7.584201e-01 8.220516e-01 7.002705e-01 6.084259e-01 4.662146e-01 3.141920e-04
<GCONST> 1.081463e+02
<STATE> 3
<MEAN> 39
 1.049767e+01 -2.381797e+00 -9.805532e+00 -1.408482e+01 -2.292161e-01 9.914425e+00 2.449528e-01 -2.205582e+00 -1.900697e+00 -3.075240e+00 5.126286e-02 -2.042104e+00 8.593070e-01 4.682977e-02 -3.000827e-01 -3.563709e-01 2.412925e-01 4.839928e-01 -2.398840e-02 -2.006451e-01 1.033071e-02 -5.448903e-02 -1.007452e-03 2.361045e-01 3.495611e-02 2.048001e-03 -6.138170e-02 7.481437e-02 9.983923e-02 3.010551e-01 5.920183e-02 -2.797095e-01 -1.543169e-01 2.787409e-02 5.954640e-02 9.216436e-02 -4.246201e-02 -2.987304e-02 -4.878940e-03
<VARIANCE> 39
 1.133534e+01 3.870062e+01 2.538982e+01 5.496775e+01 7.704970e+01 6.085326e+01 5.787309e+01 4.695987e+01 4.387424e+01 4.499026e+01 3.418872e+01 3.399464e+01 7.747983e-03 2.049142e-01 1.093730e+00 9.237830e-01 1.421068e+00 1.635445e+00 1.796998e+00 1.733764e+00 1.606079e+00 1.543794e+00 1.641271e+00 1.555087e+00 1.403802e+00 1.933460e-04 5.075819e-02 1.368410e-01 1.432111e-01 2.172189e-01 2.643769e-01 2.539063e-01 2.823461e-01 2.736675e-01 2.902974e-01 2.721589e-01 2.480129e-01 2.321806e-01 4.200717e-05
<GCONST> 7.601424e+01
<STATE> 4
<MEAN> 39
 1.178830e+01 -3.412642e+00 -1.241222e+01 -7.691154e+00 1.716055e+00 3.890613e+00 -3.625664e+00 -1.320685e-01 -3.336428e+00 -7.034819e-01 2.046814e+00 -1.933502e+00 8.372650e-01 -2.667246e-01 -1.802714e-01 2.042396e-01 2.012789e+00 9.666976e-01 -1.553497e+00 -1.416376e+00 3.690519e-01 9.254534e-01 5.590423e-01 -3.967149e-01 -2.410045e-01 -1.911710e-02 -2.575139e-01 2.541790e-01 4.973672e-01 2.786298e-01 -2.114681e-01 -2.330119e-01 1.131794e-01 9.434431e-02 2.046343e-01 -1.408181e-01 -3.025966e-01 5.985274e-02 -8.117139e-03
<VARIANCE> 39
 1.289691e+01 2.489722e+01 3.359567e+01 4.359994e+01 4.923703e+01 5.676346e+01 6.985091e+01 5.479733e+01 6.209903e+01 6.411360e+01 5.671173e+01 5.514870e+01 9.272327e-03 7.940320e-01 3.039735e+00 2.678073e+00 2.457262e+00 3.896538e+00 3.015819e+00 4.733719e+00 3.811622e+00 3.685273e+00 3.462205e+00 3.156163e+00 3.075318e+00 7.346371e-04 1.986756e-01 2.414642e-01 2.691851e-01 3.722592e-01 5.028172e-01 4.976979e-01 6.613591e-01 6.334026e-01 6.445257e-01 7.447597e-01 6.787311e-01 6.332532e-01 8.085353e-05
<GCONST> 9.971127e+01
<TRANSP> 5
 0.000000e+00 1.000000e+00 0.000000e+00 0.000000e+00 0.000000e+00
 0.000000e+00 6.843386e-01 3.156614e-01 0.000000e+00 0.000000e+00
 0.000000e+00 0.000000e+00 8.176136e-01 1.823864e-01 0.000000e+00
 0.000000e+00 0.000000e+00 0.000000e+00 6.476921e-01 3.523079e-01
 0.000000e+00 0.000000e+00 0.000000e+00 0.000000e+00 0.000000e+00
<ENDHMM>
~h "aw"
<BEGINHMM>
<NUMSTATES> 5
<STATE> 2
<MEAN> 39
 6.326938e+00 -8.782403e+00 -2.893253e+00 -4.150415e+00 -2.407381e+00 3.479182e-01 1.466430e+00 2.580683e+00 1.968253e-01 -3.159151e+00 -4.999809e+00 -3.519403e+00 8.287093e-01 5.555204e-01 -1.756931e+00 -1.099181e+00 -7.798908e-01 4.522686e-01 8.414294e-01 -1.459869e-01 1.501696e-01 1.009359e-01 -7.600843e-01 -5.762185e-01 -5.472521e-01 3.131757e-02 -4.009190e-01 4.656317e-01 6.924718e-02 3.741563e-01 4.925973e-01 2.637476e-01 2.371250e-02 -3.122584e-01 -1.019624e-02 1.498727e-01 2.788285e-01 1.950918e-01 -1.529126e-02
<VARIANCE> 39
 1.141526e+01 2.170676e+01 3.671554e+01 2.961785e+01 3.971612e+01 4.140780e+01 4.154563e+01 4.270046e+01 5.508950e+01 4.436002e+01 2.885147e+01 3.097515e+01 8.570388e-03 1.639602e+00 2.229678e+00 1.831779e+00 2.952262e+00 3.184966e+00 2.847397e+00 3.681775e+00 3.419344e+00 3.276564e+00 2.884326e+00 2.835886e+00 2.471037e+00 1.070593e-03 3.352294e-01 3.426715e-01 3.412720e-01 4.755572e-01 5.184639e-01 5.455965e-01 6.009712e-01 6.124749e-01 6.014389e-01 5.294453e-01 4.838654e-01 4.153199e-01 2.012573e-04
<GCONST> 9.647577e+01
<STATE> 3
<MEAN> 39
 7.536519e+00 -1.018271e+01 -7.232409e+00 -5.431472e+00 3.519702e+00 5.884027e+00 -1.366057e+00 -7.931731e-01 1.713103e+00 -3.726215e+00 -4.699389e+00 -4.129299e+00 8.456099e-01 2.510076e-01 4.169873e-01 -4.368705e-01 -4.989519e-01 4.225819e-01 5.573968e-01 -4.590343e-01 -4.882864e-01 1.617983e-01 3.738949e-01 2.991134e-01 -1.282271e-01 -3.928433e-03 1.489300e-02 2.387625e-01 1.151341e-01 -5.909168e-04 -1.961750e-01 -1.671418e-01 -1.335029e-03 4.344119e-02 -4.944412e-02 1.066934e-01 8.840463e-02 5.236194e-02 -3.169995e-03
<VARIANCE> 39
 1.019746e+01 1.794918e+01 2.415202e+01 3.896364e+01 3.481916e+01 3.943980e+01 5.207851e+01 3.761042e+01 4.210383e+01 4.477663e+01 3.007954e+01 3.310443e+01 7.703880e-03 2.314105e-01 8.367387e-01 7.339472e-01 1.196117e+00 1.534836e+00 1.416257e+00 1.577061e+00 1.469646e+00 1.574531e+00 1.308610e+00 1.308810e+00 1.175772e+00 1.049784e-04 3.933065e-02 1.048207e-01 1.165122e-01 1.826132e-01 1.889795e-01 2.115055e-01 2.566569e-01 2.269394e-01 2.440270e-01 2.133762e-01 1.972961e-01 1.981173e-01 2.017570e-05
<GCONST> 6.754310e+01
<STATE> 4
<MEAN> 39
 9.457133e+00 -3.448198e+00 -7.928995e+00 -9.151266e+00 1.139628e+00 6.255687e+00 -2.868807e+00 -2.920725e+00 1.167002e+00 7.913694e-01 -8.748060e-01 -4.263824e+00 7.694083e-01 -3.979630e-01 1.605076e+00 9.029782e-01 1.226020e+00 -5.284065e-01 -1.192721e+00 -1.142376e-01 -1.591285e-01 -3.402946e-01 4.331291e-01 3.328549e-01 4.231666e-01 -3.880709e-02 -4.258597e-01 1.041173e-01 2.882227e-01 6.359237e-01 1.851919e-01 -2.077132e-01 1.942325e-01 4.483117e-02 -4.435885e-02 -1.479933e-01 -1.296014e-01 9.033737e-02 -1.014370e-02
<VARIANCE> 39
 9.653926e+00 2.874297e+01 2.451182e+01 4.526446e+01 4.346226e+01 4.600647e+01 5.431230e+01 3.792843e+01 4.442303e+01 5.124900e+01 4.561043e+01 3.129436e+01 1.446432e-02 1.340647e+00 2.553052e+00 2.049335e+00 4.345643e+00 3.257076e+00 3.092860e+00 3.184106e+00 3.104466e+00 3.190418e+00 3.103268e+00 2.923186e+00 2.430172e+00 1.304624e-03 2.517137e-01 3.648726e-01 2.966328e-01 4.869306e-01 5.217524e-01 5.695584e-01 5.979657e-01 5.690741e-01 5.299010e-01 5.531271e-01 5.195427e-01 4.176692e-01 1.609039e-04
<GCONST> 9.782941e+01
<TRANSP> 5
 0.000000e+00 1.000000e+00 0.000000e+00 0.000000e+00 0.000000e+00
 0.000000e+00 7.092016e-01 2.907984e-01 0.000000e+00 0.000000e+00
 0.000000e+00 0.000000e+00 8.733544e-01 1.266456e-01 0.000000e+00
 0.000000e+00 0.000000e+00 0.000000e+00 7.705269e-01 2.294731e-01
 0.000000e+00 0.000000e+00 0.000000e+00 0.000000e+00 0.000000e+00
<ENDHMM>
~h "ay"
<BEGINHMM>
<NUMSTATES> 5
<STATE> 2
<MEAN> 39
 8.495699e+00 -8.156484e+00 -7.771635e+00 -7.576521e+00 2.455876e+00 6.434699e+00 -1.832435e+00 -1.493926e+00 1.529472e+00 -1.545442e+00 -3.698487e+00 -5.102323e+00 8.367590e-01 4.812454e-01 -1.916548e+00 -5.383762e-01 -7.004834e-01 2.814585e-01 4.526647e-01 -3.434074e-01 1.790487e-01 4.376225e-01 -6.332162e-01 -7.216778e-01 -5.899999e-01 3.638482e-02 -6.330670e-01 4.719305e-01 5.111046e-01 7.257099e-01 3.889042e-03 -3.929960e-01 2.373146e-01 1.401297e-01 -7.232792e-02 -3.593137e-02 1.841539e-01 3.978356e-01 -1.875780e-02
<VARIANCE> 39
 1.066263e+01 2.314927e+01 2.740751e+01 3.978413e+01 3.789347e+01 5.354304e+01 5.017513e+01 4.864732e+01 3.904924e+01 4.659826e+01 3.986387e+01 3.033883e+01 8.789540e-03 2.513214e+00 2.245969e+00 3.109771e+00 4.412036e+00 3.380563e+00 4.205964e+00 3.360814e+00 4.040739e+00 3.178447e+00 2.680620e+00 2.865081e+00 2.697846e+00 1.700248e-03 4.843808e-01 3.418177e-01 3.507935e-01 5.721670e-01 5.940401e-01 6.220785e-01 5.919031e-01 7.957830e-01 5.856573e-01 5.237307e-01 6.278736e-01 4.562910e-01 2.551850e-04
<GCONST> 1.010310e+02
<STATE> 3
<MEAN> 39
 7.493382e+00 -1.080059e+01 -6.401435e+00 -4.947269e+00 2.996057e+00 4.468771e+00 -1.481052e+00 7.330353e-01 1.966062e+00 -4.410587e+00 -5.077537e+00 -3.924284e+00 8.434150e-01 -2.619736e-01 5.235008e-04 9.183132e-01 4.650096e-01 -9.521570e-01 -1.038973e+00 4.229988e-01 8.466263e-01 -1.909858e-01 -3.666671e-01 -1.226560e-02 3.703583e-01 -5.134463e-03 -2.063121e-03 2.811840e-01 1.740841e-01 -5.627057e-02 -2.652170e-01 -1.187296e-01 5.093038e-02 -2.437086e-02 -1.689472e-01 1.506376e-01 1.775137e-01 4.357961e-02 -2.846469e-03
<VARIANCE> 39
 8.849292e+00 1.831756e+01 2.784192e+01 3.152322e+01 4.503615e+01 5.245162e+01 5.423401e+01 4.995125e+01 4.581892e+01 4.345288e+01 2.745593e+01 3.092222e+01 7.836622e-03 2.238634e-01 7.508317e-01 1.085236e+00 1.160026e+00 2.091913e+00 1.908231e+00 2.060058e+00 1.984507e+00 1.711135e+00 1.370963e+00 1.476227e+00 1.330707e+00 9.616786e-05 3.548888e-02 1.184414e-01 1.162724e-01 1.634668e-01 2.184744e-01 2.326197e-01 2.762233e-01 3.323328e-01 2.736612e-01 2.725046e-01 2.599716e-01 2.424370e-01 1.968765e-05
<GCONST> 7.122551e+01
<STATE> 4
<MEAN> 39
 5.153458e+00 -6.080409e+00 4.026609e+00 -4.163740e+00 -8.385697e+00 -3.385640e+00 1.380527e+00 3.465941e+00 -2.698157e+00 -2.341947e+00 -2.163396e+00 -1.890786e+00 7.755561e-01 -2.379534e-01 1.852755e+00 1.278452e+00 6.287623e-01 -5.721523e-01 -5.717036e-01 -3.190755e-01 -1.002160e+00 -7.017541e-01 7.805253e-01 6.036203e-01 1.855373e-01 -2.840441e-02 -7.029640e-02 2.570763e-01 -3.912688e-01 3.662755e-01 7.531359e-01 3.148458e-01 -1.447500e-01 -3.263950e-01 1.772793e-01 -6.197734e-02 -1.326751e-01 -5.986309e-02 -8.052330e-03
<VARIANCE> 39
 1.012323e+01 2.535935e+01 3.909061e+01 3.538264e+01 3.485690e+01 4.302504e+01 4.014048e+01 4.589634e+01 4.886275e+01 3.849095e+01 3.172425e+01 2.304788e+01 1.051630e-02 7.896042e-01 1.598304e+00 2.338712e+00 3.263199e+00 4.515340e+00 2.723013e+00 3.169003e+00 3.170301e+00 3.444478e+00 3.004854e+00 2.578240e+00 2.239000e+00 6.478677e-04 2.210900e-01 2.486431e-01 3.435975e-01 4.702187e-01 4.762044e-01 5.342157e-01 6.090741e-01 6.772729e-01 5.428734e-01 5.555770e-01 4.576941e-01 3.611062e-01 1.113531e-04
<GCONST> 9.361847e+01
<TRANSP> 5
 0.000000e+00 1.000000e+00 0.000000e+00 0.000000e+00 0.000000e+00
 0.000000e+00 6.549621e-01 3.450380e-01 0.000000e+00 0.000000e+00
 0.000000e+00 0.000000e+00 8.516066e-01 1.483934e-01 0.000000e+00
 0.000000e+00 0.000000e+00 0.000000e+00 7.770156e-01 2.229844e-01
 0.000000e+00 0.000000e+00 0.000000e+00 0.000000e+00 0.000000e+00
<ENDHMM>
~h "ch"
<BEGINHMM>
<NUMSTATES> 5
<STATE> 2
<MEAN> 39
 -6.018504e+00 3.710633e-02 3.642457e+00 1.506147e+00 1.666151e+00 2.828815e+00 9.568151e-01 2.707951e-01 2.222515e+00 9.977800e-01 1.660619e+00 1.087801e+00 3.468657e-01 -3.204715e+00 -7.551451e-01 -5.528524e-02 -1.192283e+00 3.959683e-01 1.698870e+00 7.464255e-01 3.563673e-01 9.689201e-01 6.432702e-01 7.882398e-01 4.335932e-01 2.111263e-02 -1.732758e-01 8.899777e-02 3.211337e-01 -2.061566e-01 -4.066544e-01 -2.359936e-01 -1.178907e-01 -8.231484e-03 -2.229717e-01 -1.935313e-01 -1.138512e-01 -5.216485e-02 4.076005e-02
<VARIANCE> 39
 3.484548e+01 3.755766e+01 2.756174e+01 3.300244e+01 2.925570e+01 3.093516e+01 2.475402e+01 2.979182e+01 2.872151e+01 2.456491e+01 2.253624e+01 1.654582e+01 4.041881e-02 3.975262e+00 3.931934e+00 4.289997e+00 3.330951e+00 4.310263e+00 3.176236e+00 3.254613e+00 3.479258e+00 3.435336e+00 3.092254e+00 2.623901e+00 1.944022e+00 1.182531e-02 6.286981e-01 1.176611e+00 7.021627e-01 9.228671e-01 6.445681e-01 6.183180e-01 6.096811e-01 6.209753e-01 5.795468e-01 5.520484e-01 4.709738e-01 3.627887e-01 1.051392e-03
<GCONST> 1.059666e+02
<STATE> 3
<MEAN> 39
 -1.888592e+01 1.939473e+00 8.291791e+00 -1.564336e+00 6.416649e-01 6.759584e+00 3.811035e+00 1.272949e+00 3.235061e+00 1.072621e+00 3.333044e+00 1.943679e+00 7.213979e-01 -3.139769e-01 2.283788e-01 6.496157e-01 5.335850e-01 -5.638772e-01 -2.330802e-01 7.381948e-01 1.631288e-01 -1.488881e-01 -5.914100e-02 -9.766170e-02 6.954371e-02 2.508119e-02 1.210575e+00 -1.358329e-01 -2.564588e-01 3.250705e-01 -6.017931e-02 -4.693500e-01 -1.806701e-01 -3.375691e-02 -1.638788e-01 -6.570617e-02 -1.912631e-01 -9.018724e-02 -2.355994e-02
<VARIANCE> 39
 1.422116e+01 2.662356e+01 1.867935e+01 2.203134e+01 3.550795e+01 2.365680e+01 2.365562e+01 2.327588e+01 2.147630e+01 1.772952e+01 2.096502e+01 1.217042e+01 1.512152e-02 5.249703e+00 2.215403e+00 1.868721e+00 1.901904e+00 1.781521e+00 2.062810e+00 1.869877e+00 1.844156e+00 1.643897e+00 1.537184e+00 1.412724e+00 1.188089e+00 3.512507e-03 5.915948e-01 3.741946e-01 3.686187e-01 3.891063e-01 4.218356e-01 4.228079e-01 4.722558e-01 3.965513e-01 3.694938e-01 3.469119e-01 3.252897e-01 2.593288e-01 3.688289e-04
<GCONST> 8.674391e+01
<STATE> 4
<MEAN> 39
 -9.451026e+00 -5.265794e-01 7.438998e+00 3.767748e+00 -1.822784e+00 1.627486e+00 4.946570e+00 1.674141e+00 1.883131e+00 2.604938e-01 8.343400e-01 1.386335e+00 5.936380e-01 4.247625e+00 -2.767705e-01 -9.131289e-01 2.257677e-01 -3.918846e-01 -1.748310e+00 -1.504690e+00 -2.668455e-01 -8.124913e-01 -6.859089e-01 -8.082012e-01 -5.506147e-01 -2.084209e-02 3.838347e-01 -1.327032e-01 -3.374600e-01 -5.640540e-01 -3.136015e-02 -3.042356e-02 -5.719036e-01 -1.297868e-01 -1.117185e-01 -6.327306e-02 7.813587e-04 -1.044994e-01 1.038344e-02
<VARIANCE> 39
 4.605026e+01 2.597023e+01 2.911982e+01 3.286467e+01 3.626296e+01 4.294841e+01 3.256952e+01 3.064484e+01 2.853947e+01 2.427009e+01 2.366076e+01 1.660450e+01 2.055182e-02 4.353842e+00 2.379018e+00 3.156593e+00 3.426983e+00 4.843127e+00 4.674826e+00 4.476917e+00 3.932828e+00 3.929662e+00 3.006850e+00 3.074803e+00 2.166252e+00 3.272453e-03 1.019427e+00 4.214444e-01 4.832197e-01 4.919169e-01 6.563871e-01 7.462052e-01 7.399593e-01 6.476117e-01 6.176289e-01 5.369127e-01 4.842634e-01 4.122387e-01 5.425612e-04
<GCONST> 1.038988e+02
<TRANSP> 5
 0.000000e+00 1.000000e+00 0.000000e+00 0.000000e+00 0.000000e+00
 0.000000e+00 7.282583e-01 2.717417e-01 0.000000e+00 0.000000e+00
 0.000000e+00 0.000000e+00 7.913736e-01 2.086264e-01 0.000000e+00
 0.000000e+00 0.000000e+00 0.000000e+00 6.759818e-01 3.240182e-01
 0.000000e+00 0.000000e+00 0.000000e+00 0.000000e+00 0.000000e+00
<ENDHMM>
~h "dh"
<BEGINHMM>
<NUMSTATES> 5
<STATE> 2
<MEAN> 39
 -1.538397e+00 5.064245e+00 5.265483e-01 5.630254e+00 2.556124e+00 1.116280e+00 7.493029e-01 -2.189163e+00 4.423675e-01 -2.165573e-01 -5.982988e-01 -7.641991e-01 4.334417e-01 5.267640e-01 -6.319285e-02 1.043595e-01 -3.122695e-01 -7.121903e-01 -5.706025e-01 -1.759438e-01 2.580483e-01 3.116532e-01 -2.200910e-01 -1.226181e-01 2.314749e-01 5.367832e-02 5.910498e-01 -5.189816e-01 1.021849e-01 -7.521244e-01 -7.209852e-01 -5.577840e-01 -5.035426e-01 1.429616e-01 9.962743e-02 9.713846e-02 -1.069557e-01 2.352657e-02 2.475883e-02
<VARIANCE> 39
 3.563652e+01 2.479265e+01 2.701699e+01 2.220384e+01 2.236424e+01 2.927148e+01 3.669506e+01 3.313734e+01 2.807535e+01 2.674180e+01 2.955448e+01 2.698479e+01 2.874455e-02 4.566574e+00 2.672629e+00 3.140646e+00 3.443784e+00 3.760570e+00 4.031699e+00 4.213500e+00 3.464030e+00 3.460803e+00 2.914407e+00 2.923451e+00 2.553173e+00 7.380737e-03 5.100792e-01 5.986748e-01 7.021307e-01 6.546313e-01 6.042990e-01 7.505697e-01 8.272636e-01 7.416324e-01 7.258369e-01 6.258155e-01 6.706997e-01 5.923458e-01 6.025673e-04
<GCONST> 1.055240e+02
<STATE> 3
<MEAN> 39
 9.432738e-01 4.804075e+00 3.996048e-01 3.753114e+00 -5.563517e-01 -1.813685e+00 -3.514599e-01 -1.553186e+00 1.566648e+00 -4.938476e-01 -6.430241e-01 2.514678e-01 6.049687e-01 2.180200e+00 -1.069271e+00 6.769767e-01 -1.916834e+00 -2.233905e+00 -1.912335e+00 -1.731388e+00 3.438302e-01 3.028459e-01 -1.588689e-01 -6.249875e-01 -3.081759e-02 1.027697e-01 1.808170e-01 -4.121142e-01 2.593025e-01 -3.757370e-01 -2.067430e-01 -5.129728e-02 -2.702657e-01 9.969776e-03 -2.292101e-01 1.121031e-01 -8.216160e-02 -1.618144e-01 -5.901120e-03
<VARIANCE> 39
 2.016441e+01 1.577008e+01 2.069614e+01 1.866343e+01 2.303596e+01 2.880116e+01 3.467995e+01 2.815420e+01 2.541707e+01 2.285817e+01 2.393966e+01 2.083369e+01 1.624808e-02 3.825490e+00 3.072789e+00 4.844610e+00 3.755625e+00 4.295354e+00 5.150879e+00 5.609410e+00 5.551616e+00 5.554748e+00 4.148913e+00 4.182934e+00 3.563614e+00 3.204932e-03 3.442933e-01 3.834061e-01 4.253065e-01 4.489057e-01 4.192352e-01 5.706900e-01 5.963374e-01 5.677859e-01 5.289258e-01 4.817236e-01 5.567222e-01 4.102376e-01 3.811256e-04
<GCONST> 1.003206e+02
<STATE> 4
<MEAN> 39
 4.864106e+00 1.912609e+00 1.782017e+00 -7.532121e-02 -4.698388e+00 -5.235591e+00 -4.128548e+00 -1.005551e+00 2.081321e+00 -2.147924e-01 -1.958888e+00 -6.005382e-02 7.320656e-01 1.846906e+00 -1.596823e+00 9.284731e-01 -2.043938e+00 -2.074798e+00 -1.534454e+00 -1.614609e+00 3.660658e-01 -1.622992e-01 -9.853590e-03 -5.995838e-01 -2.577130e-01 7.587614e-02 -4.678565e-01 2.502161e-02 5.430068e-02 3.011059e-01 4.975054e-01 5.511133e-01 3.607712e-01 -5.899282e-02 -3.592196e-01 4.703580e-02 1.392163e-01 -1.078255e-01 -2.811277e-02
<VARIANCE> 39
 9.749185e+00 1.867353e+01 3.059228e+01 2.554470e+01 3.201136e+01 2.892374e+01 3.526985e+01 3.497577e+01 3.568859e+01 2.869480e+01 2.236730e+01 2.514867e+01 1.080247e-02 2.740577e+00 2.919431e+00 4.231455e+00 3.863666e+00 3.905664e+00 5.406182e+00 5.708633e+00 5.225790e+00 5.209991e+00 3.982841e+00 4.515615e+00 3.321843e+00 1.766127e-03 3.870964e-01 3.497902e-01 4.538212e-01 5.059765e-01 4.856054e-01 5.295151e-01 6.192923e-01 6.516425e-01 6.139789e-01 5.088711e-01 4.713067e-01 4.623102e-01 3.648025e-04
<GCONST> 1.006083e+02
<TRANSP> 5
 0.000000e+00 1.000000e+00 0.000000e+00 0.000000e+00 0.000000e+00
 0.000000e+00 4.605686e-01 5.394314e-01 0.000000e+00 0.000000e+00
 0.000000e+00 0.000000e+00 1.273262e-02 9.872674e-01 0.000000e+00
 0.000000e+00 0.000000e+00 0.000000e+00 1.100991e-01 8.899009e-01
 0.000000e+00 0.000000e+00 0.000000e+00 0.000000e+00 0.000000e+00
<ENDHMM>
~h "eh"
<BEGINHMM>
<NUMSTATES> 5
<STATE> 2
<MEAN> 39
 6.094036e+00 -4.831590e+00 9.820145e-01 -3.722512e+00 -6.245898e+00 -4.410135e+00 -1.600309e+00 2.906647e+00 1.061589e+00 -1.344200e+00 -3.213958e+00 -1.812847e+00 8.034847e-01 1.415295e+00 -2.320091e+00 -2.096643e-01 -1.475022e+00 -1.200829e+00 -5.290872e-01 -4.346113e-01 1.129081e+00 7.322069e-02 -6.033882e-01 -7.033024e-01 -6.229978e-01 4.541643e-02 -8.231791e-01 4.067794e-01 -1.432564e-01 3.804865e-01 6.357765e-01 4.665502e-01 4.130291e-01 -7.533732e-02 -7.047325e-02 7.521242e-02 2.708081e-01 1.772003e-01 -1.512591e-02
<VARIANCE> 39
 1.170634e+01 2.784484e+01 3.717068e+01 3.011688e+01 3.458171e+01 3.606153e+01 4.664661e+01 3.757503e+01 4.652488e+01 3.774135e+01 3.296138e+01 2.596482e+01 1.059281e-02 4.072687e+00 2.523796e+00 2.846100e+00 3.668418e+00 3.663284e+00 4.398289e+00 5.147840e+00 3.742303e+00 4.417300e+00 3.337873e+00 3.585749e+00 2.720909e+00 1.620850e-03 5.276710e-01 4.830374e-01 4.115383e-01 4.927516e-01 5.001703e-01 6.049863e-01 6.525124e-01 6.658556e-01 6.590576e-01 5.542436e-01 5.547264e-01 4.306987e-01 2.975660e-04
<GCONST> 1.021648e+02
<STATE> 3
<MEAN> 39
 5.947047e+00 -8.115982e+00 1.887267e-01 -4.870758e+00 -5.574435e+00 -3.260432e+00 5.974188e-01 5.449442e+00 1.328255e-01 -3.353044e+00 -4.018939e+00 -2.129615e+00 8.266290e-01 8.550549e-02 -3.397373e-03 -1.734993e-01 1.649413e-01 3.042237e-01 -8.246931e-02 -9.614985e-02 1.194568e-01 -8.599275e-02 -1.840088e-01 -2.625670e-02 4.789861e-02 -4.891462e-03 -3.688955e-02 5.309128e-01 6.429037e-02 3.221564e-01 1.738219e-01 -7.341404e-02 -1.653831e-01 -3.167145e-01 -5.264197e-02 1.490637e-01 1.212220e-01 7.892805e-02 -9.307525e-03
<VARIANCE> 39
 1.010569e+01 1.806218e+01 3.070477e+01 2.773359e+01 3.330708e+01 3.917979e+01 4.306680e+01 3.386989e+01 5.914177e+01 3.769522e+01 3.034503e+01 2.758833e+01 9.697421e-03 3.902759e-01 1.060043e+00 1.401734e+00 1.160593e+00 1.482378e+00 1.682312e+00 1.972795e+00 1.752268e+00 1.616625e+00 1.539088e+00 1.271352e+00 1.149506e+00 2.505803e-04 1.218865e-01 2.458400e-01 2.126256e-01 2.855558e-01 2.930639e-01 3.015897e-01 3.567356e-01 3.663566e-01 3.644460e-01 3.017505e-01 2.699951e-01 2.566140e-01 8.710162e-05
<GCONST> 7.765570e+01
<STATE> 4
<MEAN> 39
 6.939199e+00 -5.498266e+00 -1.000577e-01 -2.981368e+00 -4.321572e+00 -4.852135e+00 -2.260894e+00 3.700356e+00 6.277343e-01 -2.084298e+00 -3.626834e+00 -1.849386e+00 7.770932e-01 -5.064787e-01 2.406716e+00 5.036339e-01 1.811786e+00 1.052843e+00 4.797383e-02 -1.369439e-01 -1.232443e+00 -4.797879e-01 2.797892e-01 4.322532e-01 2.836882e-01 -5.262410e-02 -5.625826e-01 4.933536e-01 2.361126e-02 3.614764e-01 3.626103e-01 4.101530e-01 3.353008e-01 -1.971489e-01 -3.320877e-03 6.858081e-02 1.622608e-01 1.004174e-02 -1.382224e-02
<VARIANCE> 39
 1.043741e+01 2.572629e+01 3.773054e+01 3.160691e+01 3.685857e+01 4.212160e+01 5.112377e+01 4.610968e+01 5.397852e+01 4.340125e+01 3.793577e+01 3.172218e+01 1.140880e-02 2.097802e+00 2.421276e+00 2.923219e+00 3.116825e+00 3.120709e+00 3.551772e+00 4.104210e+00 4.089562e+00 4.151057e+00 3.135630e+00 2.925566e+00 2.717985e+00 1.407265e-03 3.660878e-01 4.036772e-01 4.316321e-01 4.949113e-01 5.288251e-01 5.840000e-01 5.815486e-01 7.518441e-01 7.565300e-01 5.785205e-01 5.596477e-01 4.613578e-01 2.423683e-04
<GCONST> 1.010164e+02
<TRANSP> 5
 0.000000e+00 1.000000e+00 0.000000e+00 0.000000e+00 0.000000e+00
 0.000000e+00 5.494360e-01 4.505640e-01 0.000000e+00 0.000000e+00
 0.000000e+00 0.000000e+00 7.609230e-01 2.390770e-01 0.000000e+00
 0.000000e+00 0.000000e+00 0.000000e+00 5.151343e-01 4.848657e-01
 0.000000e+00 0.000000e+00 0.000000e+00 0.000000e+00 0.000000e+00
<ENDHMM>
~h "er"
<BEGINHMM>
<NUMSTATES> 5
<STATE> 2
<MEAN> 39
 1.024720e+01 -4.117332e+00 -4.706818e+00 1.338283e+00 -8.995242e-01 -6.564105e+00 -7.905538e+00 1.190782e+00 -1.915968e-02 -1.249703e+00 -7.494354e-01 -8.259715e-01 7.539448e-01 2.382245e+00 -1.182226e+00 -1.561829e+00 -1.857845e-01 1.280594e-02 -1.873035e+00 -2.213355e+00 1.054308e+00 1.991695e-02 -5.675763e-01 1.848862e-02 -5.147022e-02 4.165907e-02 -9.334921e-01 2.313816e-01 3.145561e-01 1.905815e-01 2.581183e-01 4.613155e-01 5.493848e-01 6.042194e-02 1.265580e-01 1.031249e-01 9.808868e-02 1.402960e-01 -1.548338e-02
<VARIANCE> 39
